-1.049102080055460849e-03,-9.980762799793735374e-03,-9.908690965992979563e-03,2.533081470804963986e-02,1.128599168966208308e-02,-1.567825055186951658e-02
2.393121872563697735e-03,-1.221518600220120043e-02,-1.006686306921534928e-02,1.854118480235466410e-02,9.979246481710453420e-03,-8.631504085212243424e-03
2.125005959167874589e-03,-1.211890509909472995e-02,-7.279909982267178392e-03,9.787802637293993580e-03,1.511246382708790470e-02,-7.626457342187824631e-03
1.938742946377235285e-03,-1.162778860748891162e-02,-5.314901805098944457e-03,6.615630605501181261e-03,1.774480692340765428e-02,-9.356490062698261806e-03
2.246133902652624938e-03,-1.112518293065578937e-02,-7.790698926170648402e-03,8.295070086324882880e-03,1.776034721155474172e-02,-9.385669343705797460e-03
1.716896646322954014e-03,-1.064508709834502583e-02,-9.270814833974743915e-03,9.576594392226881955e-03,1.783759161902784274e-02,-9.215180725257879693e-03
1.861511971800466209e-03,-1.042867730442660623e-02,-1.269333605833192560e-02,1.256619140013899398e-02,1.803765650725012992e-02,-9.343346516431014909e-03
2.519442366816791994e-03,-1.020323554148043835e-02,-1.221090260355162105e-02,1.270806314744927883e-02,1.341761878688229118e-02,-6.230986156116277014e-03
2.551610966343216113e-03,-1.013869385657458974e-02,-1.327254818121955705e-02,1.229812682561650522e-02,1.398549458015355303e-02,-5.423990334319015241e-03
2.881226554885486704e-03,-1.006292888035417721e-02,-1.285862734721051476e-02,1.190771795554711361e-02,1.303937208061225518e-02,-4.906760363480139678e-03
2.952066570777667036e-03,-9.913953459275417698e-03,-1.238428095095979106e-02,1.051189624466066647e-02,1.381968766246495679e-02,-4.985416067668052911e-03
2.497763666687742405e-03,-9.700320476291036248e-03,-1.021655513969908953e-02,9.616936214085332335e-03,1.266264413638555977e-02,-4.860468401168519144e-03
1.962811771942692563e-03,-9.606692797165803863e-03,-9.985470320454343379e-03,1.024747722701284565e-02,1.261406670738077218e-02,-5.232192588716159248e-03
2.181467653793094617e-03,-9.528994051727107673e-03,-9.396408830763799958e-03,9.183829808592752775e-03,1.357410878115392246e-02,-6.014003361048792830e-03
2.652788721884965974e-03,-9.368518860730173925e-03,-8.793233308273747800e-03,8.427249635307606374e-03,1.287100817749932923e-02,-5.789294365687924770e-03
2.338125392575725325e-03,-9.228253653703635123e-03,-7.816978259079759850e-03,7.280041428309916296e-03,1.365078610371318370e-02,-6.223721011815378304e-03
2.215020742072546910e-03,-9.096135322930786263e-03,-6.101901846605053276e-03,6.091600931536404404e-03,1.311437975812573126e-02,-6.222964262198861680e-03
1.909584894579466471e-03,-8.855340335184190906e-03,-4.169285058998450227e-03,5.590935831992571194e-03,1.145143008166921161e-02,-5.927325414058642189e-03
1.509479267358359829e-03,-8.453544568674245183e-03,-1.895657941436519264e-03,5.579249722539431598e-03,9.450370890118249545e-03,-6.189897369905304064e-03
8.318890679316216352e-04,-7.773656332909528385e-03,1.184561755703848447e-03,5.275726875569348474e-03,6.805731586912298903e-03,-6.324252953207607289e-03
-8.471751817365993269e-04,-6.790786470562430212e-03,3.314413427789871230e-03,6.023524720597358412e-03,3.503622393440459538e-03,-5.203598889528625489e-03
-2.652948913974625175e-03,-5.586648906946316273e-03,5.388960752720006048e-03,7.610994866470346260e-03,7.409651170020170206e-04,-5.501322915271437963e-03
-4.435810816861485671e-03,-4.280103472610988051e-03,8.684941244215350908e-03,8.625174630008690391e-03,-3.485752481061234632e-03,-5.108449103690368073e-03
-5.723246446919444570e-03,-2.766435258772577833e-03,1.094343160177087965e-02,1.020922626441645581e-02,-6.884684316302627609e-03,-5.778291844192695419e-03
-6.784503146261455092e-03,-1.512322238743095577e-03,1.458133792252534408e-02,1.099666517538714500e-02,-1.076135157713149076e-02,-6.519826135776449379e-03
-8.130335437038232679e-03,-2.996722568633955301e-04,1.714009397561673184e-02,1.147230057472655926e-02,-1.395295687859647929e-02,-6.229429977845190973e-03
-8.771101408253227996e-03,6.701204717617499597e-04,1.834669000349050186e-02,1.213591578552029177e-02,-1.546096613474796586e-02,-6.920658717771379330e-03
-9.571694562754513511e-03,9.500728280803458778e-04,2.015146586716483681e-02,1.249312208145214424e-02,-1.606395931018126874e-02,-7.959006903761530263e-03
-1.047450286563311045e-02,1.409976744943257972e-03,2.145008666244423157e-02,1.299793909349335197e-02,-1.695805958518809345e-02,-8.425440050059639779e-03
-1.085542672492647957e-02,2.305749120376220877e-03,2.226193057139381690e-02,1.318281005496036579e-02,-1.826402885440952736e-02,-8.631034167394406598e-03
-1.163663856183511786e-02,2.809419448617597563e-03,2.430305188426792884e-02,1.263854149119966394e-02,-1.949517858240085513e-02,-8.619195679849219957e-03
-1.219527999163241665e-02,3.041107509057694360e-03,2.556877341514466467e-02,1.209759909882323833e-02,-2.035473782690830694e-02,-8.157462204484993915e-03
-1.303208854747494455e-02,3.020924680995929704e-03,2.654684152481171996e-02,1.199405489514546869e-02,-2.025345163900455631e-02,-8.276280914473651759e-03
-1.337977028043729928e-02,2.982790548466601483e-03,2.654135655294023732e-02,1.230775803829157848e-02,-1.990093154602185291e-02,-8.551203313239282011e-03
-1.437782506859978590e-02,2.888626441859090156e-03,2.599140158323927710e-02,1.320041477660311227e-02,-1.893595484216425290e-02,-8.766662890937493638e-03
-1.462442023285098411e-02,2.512339220585983225e-03,2.526810546624408058e-02,1.392582684264908992e-02,-1.880664719156552311e-02,-8.275204105062650833e-03
-1.372054587382297818e-02,1.881466680116396402e-03,2.454399205043528848e-02,1.289384765547594430e-02,-1.717369172646871639e-02,-8.425068785735907728e-03
-1.235127758313809589e-02,1.191978492780718796e-03,2.269029221031836074e-02,1.168544502618336194e-02,-1.474557813091391216e-02,-8.470860015230497614e-03
-1.030750602493160639e-02,3.067570462238180173e-04,1.983243034593124704e-02,1.069798646459059477e-02,-1.218769823819885502e-02,-8.341969593615237988e-03
-8.547293705458610877e-03,-7.088394831195717538e-04,1.738361828532034373e-02,9.469488842680170299e-03,-9.802933426021703811e-03,-7.794040513400660869e-03
-6.985096549388497902e-03,-1.875881307887102781e-03,1.435713794015887855e-02,8.918459547394775450e-03,-7.512159817927260667e-03,-6.902459812350748847e-03
-4.655716843995372570e-03,-3.097090131750686575e-03,1.048567585752267772e-02,8.345250287781302498e-03,-4.595461441396592357e-03,-6.482657728161376857e-03
-2.441537081044691925e-03,-4.345848840119945211e-03,7.061252196345255659e-03,7.214093242396045491e-03,-9.097769709239725668e-04,-6.578182546652685050e-03
2.607535970887138281e-04,-5.477123064150424096e-03,4.010731465791682153e-03,5.297973290152833276e-03,3.015170743108460359e-03,-7.107506031991256412e-03
2.599487775153355718e-03,-6.439448905781031303e-03,-9.808632761116555432e-05,4.484126936711732223e-03,6.645013224938180023e-03,-7.191092703411085078e-03
4.389358339137449348e-03,-7.113300856470534603e-03,-2.513014206840431114e-03,3.895924586479636385e-03,8.273039950809434051e-03,-6.932007813115497255e-03
5.575257087340858633e-03,-7.638068241186317039e-03,-3.876901175883061892e-03,4.370760961613486331e-03,8.732340024043553500e-03,-7.163388655928547288e-03
6.123743967825945322e-03,-7.988409271875815398e-03,-5.713696571936853659e-03,4.754259592008933458e-03,8.303035165750703370e-03,-5.478932881772907888e-03
6.042463484447060246e-03,-8.219273053647276756e-03,-7.620818864482549471e-03,6.651147373723225592e-03,7.785350378563523320e-03,-4.638869318603954309e-03
5.088719778992728190e-03,-8.392266768999158411e-03,-9.085352142043329887e-03,7.882241328249068452e-03,8.874501188369819660e-03,-4.367843384569142749e-03
4.260522586679665012e-03,-8.476918024679255120e-03,-1.087362556812210973e-02,9.507425417140292698e-03,9.768598510653970363e-03,-4.186002921672536334e-03
5.425115356562813448e-03,-8.494130952682915972e-03,-1.139204639909302194e-02,1.010960834705066161e-02,8.459077086250285302e-03,-4.107623438087819844e-03
5.780101097012462462e-03,-8.553242696811977006e-03,-1.246734506905915717e-02,1.041483642817126604e-02,7.183445114973360801e-03,-2.357794874285920866e-03
5.705529287303394599e-03,-8.518085169227690781e-03,-1.329043507242100124e-02,1.204155932650338885e-02,5.509899637818731384e-03,-1.448468009976802869e-03
5.370069366932413157e-03,-8.537455799659050132e-03,-1.150826964589074693e-02,1.227863384756694952e-02,4.188318687488974505e-03,-1.791296456438538605e-03
4.826690422814396142e-03,-8.615145783204254323e-03,-1.083905306604477162e-02,1.220104818128224869e-02,4.525888346603320310e-03,-2.099428101450880220e-03
4.453580144442138324e-03,-8.571202606343458069e-03,-9.423096050913033067e-03,1.183326836924203200e-02,4.226568538072365301e-03,-2.519118394499948212e-03
4.255288413238591215e-03,-8.621933031530779751e-03,-1.057383725633020098e-02,1.375651369686398638e-02,4.881129063043550091e-03,-3.697160885285149558e-03
4.402249257608432421e-03,-8.497310637765879276e-03,-1.099513031963668050e-02,1.482000696395840110e-02,4.483849656493794911e-03,-4.213664920658048707e-03
4.104858400472874772e-03,-8.350664953386745248e-03,-1.046996899282924207e-02,1.526873521402202262e-02,4.641647777899810152e-03,-5.194607446178643902e-03
3.347654870377117856e-03,-8.347528511886651015e-03,-7.884417638193585987e-03,1.503694142648681967e-02,6.013495839490522014e-03,-8.166145986274225138e-03
4.433696219653179317e-03,-8.404681775912551875e-03,-8.526045554561463916e-03,1.665970813980121451e-02,7.946698700240194257e-03,-1.210937572922055061e-02
3.886373272346241737e-03,-8.310051313453591798e-03,-7.287740533342896773e-03,2.439477465389086261e-02,5.982935075607591141e-04,-1.328164958700138801e-02
9.111874052226338113e-04,-7.675467676483442234e-03,-8.117991612174831409e-03,2.818919948671778919e-02,2.500996330642220756e-03,-1.580792393392442541e-02
3.675611880327881841e-03,-1.210344629954270175e-02,-9.103633636179716410e-03,1.744224397756330425e-02,1.105329023930567804e-02,-1.096406616147439783e-02
9.401771003693368267e-03,-1.260985096841349927e-02,-7.924128161348329563e-03,9.859618598873793119e-03,2.532070898212178227e-03,-1.259481371017484976e-03
9.797875949090784423e-03,-1.182885179795863800e-02,-6.101633394237040986e-03,5.396881005196125722e-04,6.687947664025414157e-03,9.049734785598938583e-04
9.223614288526200966e-03,-1.154690783880956556e-02,-5.468393812633881405e-03,-2.427714123317581494e-03,1.088274187138875762e-02,-6.633403851539142974e-04
8.520088255768930655e-03,-1.108428015657051194e-02,-8.099061261341290036e-03,-5.540618352016947034e-04,1.149905959809331517e-02,-2.817446007487005733e-04
7.125886975433371774e-03,-1.045610714624070799e-02,-8.839137431939434256e-03,2.725377740917355861e-04,1.258923424685982374e-02,-6.924144182047947162e-04
7.116575550934261737e-03,-1.018042461340030666e-02,-1.175725227040739021e-02,3.218664795880607932e-03,1.216130625084864240e-02,-5.588697138558368881e-04
7.140700942954602247e-03,-1.005833680023572423e-02,-1.192395221256607914e-02,3.944112391078979582e-03,8.056611593374386066e-03,2.840864085393794702e-03
7.795539677152948932e-03,-9.849758843552025231e-03,-1.271763941258752424e-02,3.005181722427749998e-03,8.305882089485471659e-03,3.460794767073440466e-03
8.486902686685154212e-03,-9.747073544922033039e-03,-1.293721871878618888e-02,2.481665613403610110e-03,7.779586489004602229e-03,3.936137474614832821e-03
8.034803037951017413e-03,-9.678524831681288923e-03,-1.209262736481483969e-02,8.458547870199116395e-04,8.777803812194978628e-03,4.112690559330259635e-03
7.815633515808119089e-03,-9.576580980472671270e-03,-1.083992716236097976e-02,6.115633160326612756e-04,7.812897533256875360e-03,4.176413777736017428e-03
7.416334038558918332e-03,-9.372902845543627098e-03,-1.122913443123641462e-02,1.755376147669208357e-03,8.026317848120792173e-03,3.404009242431157555e-03
7.888139692029732739e-03,-9.186519574491838411e-03,-1.089669705917973783e-02,6.691515824455572699e-04,9.143199837526620397e-03,2.382725521669678843e-03
8.074622609381153227e-03,-9.123734620585131558e-03,-1.043973192871389469e-02,9.573738617815210055e-05,9.084449458091602495e-03,2.308657095648142168e-03
8.130348463942359272e-03,-9.203772030803150650e-03,-9.453961548690742456e-03,-1.197306782259094501e-03,9.668913821241957585e-03,2.055778076568681809e-03
7.933391865397435710e-03,-9.071078067614193538e-03,-7.658396725203104639e-03,-1.720578953978472775e-03,8.467312951025096623e-03,2.049348930373300851e-03
7.248717416143126910e-03,-8.752383579811022843e-03,-5.789899161864794398e-03,-2.249304688086036213e-03,8.000049481044825897e-03,1.542820532573927969e-03
6.199482141835760234e-03,-8.325956967069052250e-03,-3.640821598970164948e-03,-2.598792327480927301e-03,8.322510972971524507e-03,4.357777871290725998e-05
5.422482271859255763e-03,-7.726409183757929934e-03,-1.682672934236918586e-03,-2.903044255221745671e-03,7.059114294732123270e-03,-1.694701933747828633e-04
4.508454808045645433e-03,-6.809208927318656512e-03,1.586315682002868276e-03,-3.307612693519650700e-03,4.544249678094493088e-03,-5.221985473047220270e-04
3.451188924399326615e-03,-5.628857391443269423e-03,5.140014179563572386e-03,-2.963719009699996524e-03,2.417460811535483039e-04,-2.403727839732086526e-04
2.566538335628168639e-03,-4.240663730103282937e-03,8.664046681446720133e-03,-2.123095526823134786e-03,-4.650908242711832008e-03,-2.159175174366338636e-04
9.808155018362798953e-04,-2.789409830728482604e-03,1.212817730040133442e-02,-8.541945399350036770e-04,-7.658446139933010668e-03,-1.806942291641115738e-03
-6.610254797197384147e-04,-1.419222039619846831e-03,1.516556803323576563e-02,1.849831628500080833e-04,-1.092918634214651817e-02,-2.341117334599684963e-03
-2.534229748570923819e-03,-3.936770982882486255e-04,1.755798734610551984e-02,2.076771348173969949e-03,-1.370063966800714149e-02,-3.006212179413147827e-03
-4.164270147214897688e-03,2.617982026755172006e-04,1.931100223539285871e-02,4.149339847952880807e-03,-1.511417153644084403e-02,-4.443698602365491086e-03
-5.789690146951617655e-03,1.306804436036858048e-03,2.136849007784365900e-02,5.357666082142627413e-03,-1.712647584155455385e-02,-5.116794607517039309e-03
-7.517795986088641157e-03,1.886875807153961171e-03,2.383589867094217801e-02,6.559445602602774657e-03,-1.959923538145012106e-02,-5.165188713160162245e-03
-8.682592390369515620e-03,2.157654945944911112e-03,2.464085180594901767e-02,7.511045003004557588e-03,-1.871601984219899151e-02,-6.910939522330093732e-03
-9.826713102509598841e-03,2.778854368921496523e-03,2.550893758691545610e-02,7.731077826904375096e-03,-1.862880990741678025e-02,-7.563346772814965972e-03
-1.056648827716367284e-02,3.419064415656511251e-03,2.704590491677585570e-02,7.043539896070795392e-03,-1.896321929805822037e-02,-7.978801653281384493e-03
-1.188272729337822367e-02,3.675707595828896918e-03,2.816779950611552827e-02,7.727895283793421305e-03,-1.968810306854261449e-02,-8.000572023816987510e-03
-1.171646681974500975e-02,3.739935874952014273e-03,2.807571411463234343e-02,7.586584983154035129e-03,-1.946706889098141421e-02,-8.218699262012017434e-03
-1.142476049621841440e-02,3.608614097214862902e-03,2.760940475731590849e-02,7.502201371420171537e-03,-1.943559220209321176e-02,-7.859867527639338020e-03
-1.021257651679379798e-02,3.158088358342596349e-03,2.724051408316532571e-02,6.856756305818858394e-03,-1.943714093185455391e-02,-7.605641298678389971e-03
-8.491218626428586116e-03,2.491043704139292957e-03,2.634853706744518312e-02,5.049659964202506644e-03,-1.773511051154486734e-02,-7.662911597813516253e-03
-6.763317390929907830e-03,1.535972463067327353e-03,2.443752414150604166e-02,3.833699065193600392e-03,-1.529126886584484916e-02,-7.752609412992182703e-03
-4.565913673059241590e-03,4.764947668637003033e-04,2.179069802972544850e-02,2.341888337010446328e-03,-1.284758542547111311e-02,-7.195582035069274587e-03
-2.214168629964518350e-03,-6.206026226917325328e-04,1.924758704945250115e-02,7.956007007690585372e-06,-9.885551037771798943e-03,-6.535220766032105374e-03
-1.122599273000995891e-03,-1.902299409456383386e-03,1.512785299960346490e-02,1.198134699115433247e-04,-6.361160293571324620e-03,-5.861607493486327772e-03
8.561433678737598481e-04,-3.232337407767890258e-03,1.084195205070002943e-02,-2.297322992454135663e-04,-2.987614829635390316e-03,-5.248410881925111293e-03
2.776501035894611731e-03,-4.595754638070629824e-03,7.837793162985925988e-03,-1.549930569347008269e-03,2.712836749524395719e-04,-4.739892666415347275e-03
4.496508558718444529e-03,-5.856329228484505149e-03,5.209817360209071171e-03,-2.769342079801816355e-03,3.703358343976092312e-03,-4.784012954617260054e-03
5.722745604187228462e-03,-6.831961527855670742e-03,7.941054550527018195e-04,-2.524460291253117616e-03,7.726861510926586428e-03,-4.887290751057729761e-03
6.715526141884176591e-03,-7.537694720662080523e-03,-2.119566993027388862e-03,-3.028013976799557878e-03,1.047410902631050120e-02,-4.504359477705613228e-03
7.680793142115028074e-03,-8.057589024187222088e-03,-3.526005628124348132e-03,-2.826505404573097669e-03,1.087914299542587677e-02,-4.149836080656207904e-03
8.172768844210866537e-03,-8.405266737713721487e-03,-5.121311838113198553e-03,-2.359679261425606800e-03,1.040702192699968949e-02,-2.693532933958000131e-03
9.267859327465164179e-03,-8.588251127903415161e-03,-6.997217181014946108e-03,-1.877616137198315997e-03,9.204343542397189909e-03,-1.009118423745664897e-03
8.632963953211433838e-03,-8.735291455040664066e-03,-7.500671961136040101e-03,-1.342648262529780572e-03,8.803419501160383853e-03,1.422282243346464751e-04
7.259635338241805617e-03,-8.930077946581436305e-03,-9.901123562343839418e-03,5.160264615881396139e-04,9.451402760537644387e-03,1.604136948557706053e-03
8.159342882858732285e-03,-8.979991361121866453e-03,-1.155778484380971458e-02,9.927927415252389351e-04,9.288612448704432895e-03,2.097028131843195128e-03
8.141959868642113796e-03,-9.053818400796690910e-03,-1.068033848473461285e-02,-1.838639522559683986e-04,8.512349947257464092e-03,3.263711021887642609e-03
8.050387476892798683e-03,-9.017348873684053606e-03,-1.196632667427905208e-02,1.375854103935199779e-03,6.651076969419747291e-03,4.906356997715408293e-03
7.583307534132601932e-03,-9.171082776415666674e-03,-1.155392844792100561e-02,2.520915732144716256e-03,6.235743097402665983e-03,4.385044860656765742e-03
7.566659515913584308e-03,-9.114714689399245479e-03,-1.072353552062546046e-02,2.385466630838539975e-03,5.406030693477727536e-03,4.480093369794791239e-03
7.220987876492153054e-03,-9.093994923862983720e-03,-1.011997275366800439e-02,2.353041741419853190e-03,4.807332949178828516e-03,4.832605110440205826e-03
7.207246255067028748e-03,-9.285688734862103735e-03,-1.285341219023227420e-02,4.633360797277366952e-03,6.306439705791980904e-03,3.992054166957925872e-03
7.247333540012242288e-03,-9.311717734379935940e-03,-1.190221472390627297e-02,4.385116443137142099e-03,6.036026736938315818e-03,3.545455738198527787e-03
6.004440600712320809e-03,-9.319252140655849906e-03,-1.004282834549169272e-02,4.159506824633776509e-03,7.199923114649418865e-03,1.998209946152033813e-03
5.735904887445119997e-03,-9.355921693794391411e-03,-7.759725707138775790e-03,4.031425772253366228e-03,8.699843905016584750e-03,-1.351527163781821592e-03
8.184531894028224813e-03,-9.650619119495303447e-03,-9.811061466617226889e-03,5.796729509899974271e-03,1.162976676821512838e-02,-6.149347586030876056e-03
8.080942504097323592e-03,-1.024670949331936767e-02,-7.688742639859655857e-03,1.495906790913570893e-02,3.629728164817309140e-03,-8.734286444871295144e-03
3.540404372785372917e-03,-1.047059668691032071e-02,-8.746375268114408089e-03,1.999710368349777445e-02,9.803535078709846307e-03,-1.412407117996829047e-02
3.933806975687425579e-03,-1.156305862306452464e-02,-9.712354374567824106e-03,1.666173887943183524e-02,1.136514464323364233e-02,-1.068527750072058996e-02
1.049847574108602778e-02,-1.146190792264277156e-02,-6.958961989518785106e-03,8.516434696300933388e-03,-6.464679625839687667e-04,5.242743735862357199e-05
1.037233725496816868e-02,-1.066803192343574076e-02,-4.630891721283231753e-03,-1.167723152695176450e-03,4.292901025253087824e-03,1.801408517192910029e-03
8.110913764232792478e-03,-1.016958427800310552e-02,-4.798517777963171721e-03,-3.552696753228848803e-03,1.033827661828063196e-02,7.160842668171079283e-05
5.849690320163566937e-03,-9.395803300787841997e-03,-7.370360891485193237e-03,-1.515833662971664830e-03,1.169431848099360648e-02,7.379890540875049670e-04
4.487709127241551813e-03,-8.683980858346556156e-03,-7.597724983366454382e-03,-1.153380497780175876e-03,1.189281254557777133e-02,1.054564666673885607e-03
4.118692359174733544e-03,-8.299444551366632478e-03,-1.033539168488232206e-02,2.222575851776214303e-03,9.109768420801073532e-03,3.183799604496954407e-03
4.206715411958592866e-03,-8.083553657081826715e-03,-1.201916393657349695e-02,4.141026806468869025e-03,5.136417605821469272e-03,6.618557769406343931e-03
3.758289850288700287e-03,-7.875190682485698826e-03,-1.293021705928008337e-02,3.310361818966518245e-03,7.454228703455924830e-03,6.282527369054643172e-03
5.380239889807570709e-03,-7.836302300499323192e-03,-1.379332466026340388e-02,2.097378378574754013e-03,6.882292857882911334e-03,7.269715834497517473e-03
5.229511676647612128e-03,-7.719634902443887371e-03,-1.344536436418874124e-02,7.927870934068923393e-04,7.959122832086374527e-03,7.183577664491799276e-03
4.834088356350398248e-03,-7.607155277547104216e-03,-1.217658949092040137e-02,6.418691076536969277e-04,7.204055660321094685e-03,7.103731644142280595e-03
4.596382552694974408e-03,-7.571518935091090668e-03,-1.302413120209762291e-02,1.606334613058646226e-03,8.425901816832177815e-03,5.967031154602973030e-03
4.787752863046078333e-03,-7.552974085118005151e-03,-1.233819239078374694e-02,1.711269070046029812e-03,8.627222355115390581e-03,4.764922187694280685e-03
4.352368968653200741e-03,-7.462666241822371767e-03,-1.093847510227055966e-02,8.207805712326027899e-04,9.345114588169998668e-03,3.882877216037157204e-03
4.835455834657794057e-03,-7.299025440568676810e-03,-9.913624340113511360e-03,-4.336969016026719862e-04,8.179750917479331612e-03,4.631139930147775904e-03
4.959901088065982525e-03,-7.090871947736574442e-03,-9.293740057291756396e-03,-1.317382601698682820e-03,7.672755916205837613e-03,5.069337602455223878e-03
5.275557670951239175e-03,-6.773713548450854827e-03,-7.441624955459154485e-03,-2.717152583890884883e-03,7.785147045974051029e-03,3.871786370875601388e-03
6.248832717115386341e-03,-6.381287797877550731e-03,-5.439940960518902142e-03,-4.108713330156414309e-03,8.289976404576277977e-03,1.391132966861220212e-03
6.496319807105866047e-03,-5.816518393218197275e-03,-2.802366144596604800e-03,-4.774887795133870433e-03,6.182309282147244352e-03,7.151432436955570135e-04
5.148000186960049671e-03,-4.904664830832405030e-03,8.859690385792782412e-04,-4.704555734393713398e-03,2.265702148502200634e-03,1.309549191184630106e-03
3.753014765097322566e-03,-3.852552713570767551e-03,3.533712430712628808e-03,-3.550612619092041386e-03,-1.163554978846826748e-03,1.279993115699673686e-03
2.423605139199404290e-03,-2.600239887789870113e-03,7.614499719220498529e-03,-2.627457780538545833e-03,-4.252903796980632249e-03,-5.575033931108495282e-04
9.068428942982063867e-04,-1.389235780281906744e-03,1.204167258321108859e-02,-2.369948311590673595e-03,-7.856348094686917138e-03,-1.332983290949828290e-03
-1.879442638084741343e-03,-4.941807254304191738e-04,1.469491157861617554e-02,3.730954568567100603e-04,-1.115260141028856337e-02,-1.541782261669139053e-03
-3.297032629684129579e-03,-8.483304745607812196e-05,1.595125946796609184e-02,2.561450283126527703e-03,-1.192652038344573819e-02,-3.204323690506621306e-03
-4.350297335628950345e-03,3.071854272615000183e-04,1.703373861041682438e-02,3.604562273690100922e-03,-1.116949013627662260e-02,-5.425698839462837417e-03
-5.387648806273650365e-03,1.598295576708676918e-03,1.864445915508877033e-02,4.452523451955860655e-03,-1.443249432952060235e-02,-4.875135047959086414e-03
-6.917824861172777555e-03,2.564594079775596187e-03,2.106402922811343587e-02,5.630613630193646857e-03,-1.689242036787192910e-02,-5.448991709037993500e-03
-8.668982345910448278e-03,3.405211477362542725e-03,2.298739558991579057e-02,6.985258569269349807e-03,-1.907453569068898527e-02,-5.634347599948245217e-03
-1.033299081592554611e-02,3.428313270585795630e-03,2.425946013555282249e-02,7.855938735940442078e-03,-1.746694554451134335e-02,-7.743775781642155999e-03
-1.114577391381565280e-02,3.420273293874833039e-03,2.468217573287923364e-02,7.950048812679825702e-03,-1.591660707875233380e-02,-8.990116846865951750e-03
-1.128202656610656149e-02,3.859328957047001522e-03,2.455481081719592881e-02,7.581832830205423659e-03,-1.501729848597078282e-02,-9.696647552370991907e-03
-1.054399028558321467e-02,4.525653234156287383e-03,2.445938656530213806e-02,6.863230403976041533e-03,-1.660992201485699329e-02,-8.694357902994224313e-03
-9.919531834132119807e-03,4.341308483588561876e-03,2.468927433741515895e-02,6.500745960611227330e-03,-1.694841365725374346e-02,-8.663383290228974729e-03
-8.976177405929682343e-03,3.866262847225911906e-03,2.482939963717635187e-02,5.652494994997664217e-03,-1.651422160152306307e-02,-8.857758471947205572e-03
-6.917778506120536401e-03,3.272493853402483246e-03,2.306607963461665065e-02,3.915234362765838277e-03,-1.547171957109578881e-02,-7.864309773568634379e-03
-4.666467939216109931e-03,2.390776529900876055e-03,2.040066331187385604e-02,2.892028441143891862e-03,-1.343545834398196179e-02,-7.581541999720628131e-03
-3.303344906334813782e-03,1.482065405896562747e-03,1.872035737161695246e-02,1.697414975485924196e-03,-1.235670306049188767e-02,-6.239789786172758763e-03
-1.027277965387076754e-03,3.467222304419494768e-04,1.610686154644420595e-02,-3.730058168009044032e-04,-1.002805427364520698e-02,-5.025245721052958893e-03
1.176444740216482090e-03,-7.992679549262311778e-04,1.181892603501280732e-02,-1.111321065139338985e-03,-6.720434981769835524e-03,-4.364346773393912131e-03
2.869624871627178726e-03,-2.042161229291719528e-03,8.306958625948133307e-03,-2.051360112363061032e-03,-2.446202093543199414e-03,-4.636860062377333794e-03
5.221873716874020355e-03,-3.216521781029054762e-03,5.331920812720541449e-03,-3.255584260421299711e-03,-5.721192433419294539e-05,-4.024476563810001212e-03
6.374879495961330994e-03,-4.421956985204534597e-03,2.756178865890581645e-03,-3.759267832570738644e-03,2.523385779976530362e-03,-3.473219324053163689e-03
7.765932328044029137e-03,-5.333257343401981432e-03,-9.511361881772178355e-04,-4.172864049547694160e-03,6.603064988399928378e-03,-3.911739735317066799e-03
9.168730120869649294e-03,-5.938993997223623172e-03,-3.805818751794256063e-03,-4.616033943154197391e-03,9.103998850520758288e-03,-3.911882279218344832e-03
9.276873827414036308e-03,-6.390103798020691471e-03,-6.676768195257091337e-03,-3.681854338078475401e-03,1.048427241782032629e-02,-3.012419913878118267e-03
8.838317142097680892e-03,-6.732889902108295764e-03,-8.564009498282868990e-03,-2.142943543772201764e-03,1.039065885589786700e-02,-1.789133053832134539e-03
1.002006365902815589e-02,-7.025395663269481256e-03,-1.001352761925061036e-02,-1.636195080562560106e-03,9.220583503442361661e-03,-5.655287993878531502e-04
9.617313468830835863e-03,-7.192467702457146402e-03,-1.192947153936094705e-02,-5.000965253966472673e-05,9.561596346405628472e-03,-6.960920878674908500e-06
8.503954806168230462e-03,-7.428613884909875988e-03,-1.451763233857824610e-02,1.353986328569785694e-03,1.014681860183387282e-02,1.941486486916262598e-03
9.143475865227606442e-03,-7.574814726442436613e-03,-1.635352307413471401e-02,8.722049393590671071e-04,1.162267002573781974e-02,2.289986970252637279e-03
9.226172286045823678e-03,-7.609453578497768315e-03,-1.559467380725521740e-02,-7.698285976210496144e-04,1.209892107308465845e-02,2.648862624243591372e-03
8.691937153113157843e-03,-7.709601994282084571e-03,-1.558972225970743988e-02,6.490756832111847178e-05,1.063215778062548758e-02,3.910321751929736814e-03
8.316270565157136974e-03,-8.046475339790998271e-03,-1.411369636828621599e-02,6.282343908907923663e-04,8.968524998576799662e-03,4.247141753452491654e-03
7.839926210120463229e-03,-7.948990989322802028e-03,-1.306104356146667485e-02,4.527347858312181779e-04,8.788224448065149949e-03,3.929149106772697291e-03
7.869754838994012791e-03,-7.806342641442492840e-03,-1.280716100533354877e-02,1.070119150379706752e-03,6.935020012463821715e-03,4.738609644938516184e-03
7.246593252624850684e-03,-8.072298742309674119e-03,-1.510981531744117444e-02,2.739924039834050907e-03,9.053971651902878101e-03,4.141625115389015524e-03
9.421333234187583006e-03,-7.978175323208802280e-03,-1.529873993888620359e-02,3.059610243328306656e-03,7.715986136017177754e-03,3.079985648562017821e-03
8.219952910024233908e-03,-8.048196099800768860e-03,-1.263099648164468618e-02,1.923110546946150490e-03,8.922615519630708314e-03,1.613513604844324812e-03
7.409684698606515234e-03,-8.505279296877110706e-03,-8.875464592864033483e-03,2.165843991892648669e-04,1.129126147835840185e-02,-1.536786686413059043e-03
9.789262174461054941e-03,-8.985127823114532133e-03,-1.171737390934897254e-02,2.599770651713437502e-03,1.471383622419849060e-02,-6.400367317909473608e-03
9.520711623635930501e-03,-9.861833936617938126e-03,-9.520721264245015844e-03,1.283813897026492637e-02,7.513005911896570958e-03,-1.048930130493445044e-02
3.190498358204786090e-03,-1.073308378785977658e-02,-9.162434704136170061e-03,1.710228143846974011e-02,1.785412651136854614e-02,-1.825138781604705024e-02
5.773191735030859528e-03,-1.128944002141733099e-02,-9.169089796226532682e-03,1.618963347833828059e-02,8.237308087329680423e-03,-9.741603483054939519e-03
1.282385570581479582e-02,-1.091390972619370008e-02,-8.206726983997667327e-03,7.339018983304667829e-03,-3.202742937584968173e-03,2.160504958656879731e-03
1.296817677337504075e-02,-1.006081788446561501e-02,-5.396656828491943995e-03,-2.049609938801286255e-03,1.330039173656772647e-03,3.208868704727060699e-03
9.309152580551939213e-03,-9.507430373964126033e-03,-4.955760493273396981e-03,-4.522101034576023193e-03,9.221973448585652627e-03,4.541658726760321586e-04
7.153339643729568660e-03,-8.667633074916525349e-03,-7.618461743564300392e-03,-2.407336371010978388e-03,1.050358215957721691e-02,1.036509386184978655e-03
6.027222487077464781e-03,-7.828987177404532830e-03,-8.517500866446611404e-03,-1.628269791425093109e-03,1.039169475941430047e-02,1.555840588784456260e-03
6.020305340076037744e-03,-7.345365285435204519e-03,-1.135047377964445124e-02,1.400019398174836812e-03,6.859030299182365849e-03,4.416484027646522259e-03
6.219735650245644329e-03,-7.044244651245221665e-03,-1.314303210590401193e-02,3.360255499220882007e-03,4.286261372187166047e-03,6.321024235495561160e-03
5.872562852724314345e-03,-6.802494574752376844e-03,-1.316009605289656000e-02,2.267387665373195391e-03,4.718274119669168404e-03,7.104365989882197550e-03
8.034890085872711113e-03,-6.691281046310364709e-03,-1.371919868297841530e-02,8.137324798462623960e-04,2.772210767354438450e-03,8.789646396215398949e-03
7.831556337402350784e-03,-6.601725226590916297e-03,-1.349845796842851116e-02,-9.318862578079188273e-04,4.264536869412217761e-03,8.935976246012798663e-03
6.348255617336036154e-03,-6.570706482897471085e-03,-1.274190765886026172e-02,-1.313936927417567362e-03,6.392420739040531250e-03,7.885874712798751629e-03
6.136894898762981082e-03,-6.633900459605763904e-03,-1.278563164869000665e-02,-1.934532694339922130e-04,6.995645284443481778e-03,6.480445194523299854e-03
6.044924640922867860e-03,-6.727592697470984734e-03,-1.182465669163558324e-02,-4.338189742247405790e-04,6.928335864540406154e-03,6.012807857868035510e-03
6.620879062843985745e-03,-6.517913994677508940e-03,-1.058411935952179028e-02,-1.130171162991709666e-03,6.332628265060564511e-03,5.278697189286492460e-03
7.627322748662565717e-03,-6.221310669041092353e-03,-9.727699810698074018e-03,-2.846198587246656555e-03,5.707625408602916284e-03,5.460260909720388196e-03
9.403072902078613363e-03,-5.963724070785497364e-03,-8.653699970134414582e-03,-6.278150658284635706e-03,6.937520556269266732e-03,4.554981240856631128e-03
1.119512367853969272e-02,-5.637799059019791420e-03,-8.314178056711193227e-03,-6.791497701065872528e-03,5.543783725558595887e-03,4.004567412698612806e-03
1.357878038310026542e-02,-5.202176867686251170e-03,-6.990385875069224549e-03,-8.215628332364258504e-03,5.904570600832929894e-03,9.248400911865317566e-04
1.236878894102431785e-02,-4.609229073100620452e-03,-3.458774733758760312e-03,-8.896610942535526298e-03,2.699895182986455314e-03,1.895930625384146476e-03
8.852963977238585344e-03,-3.734901008292861296e-03,3.873072735913437366e-04,-6.784971460160057512e-03,-1.866234482608547561e-03,3.145835700231585860e-03
5.890419956427123301e-03,-2.848497481744042409e-03,3.557353249199404679e-03,-3.769043609519708276e-03,-5.177626661745873653e-03,2.347394547383100695e-03
3.712070924620900284e-03,-1.764247041035565391e-03,7.108854718471256835e-03,-1.906021814305903887e-03,-8.994664708742303866e-03,1.844007920991615809e-03
1.940081265966985815e-03,-7.137675211751083040e-04,1.078774548392515305e-02,-1.194882204602718424e-03,-1.233320814703905456e-02,1.514031122924737113e-03
-8.670894171359276115e-04,1.563207700039044633e-04,1.392160289872656359e-02,1.820345239496362806e-04,-1.300597076512761442e-02,-3.868980104165508629e-04
-2.013694537668375001e-03,-1.815488964321521049e-04,1.418449181495531550e-02,1.277897907352914435e-03,-1.136506387426500404e-02,-1.902082413942722799e-03
-2.542895262022590135e-03,1.101727803334052536e-03,1.538702427594185185e-02,1.655606569700615247e-03,-1.237882763041618303e-02,-3.222635756537764462e-03
-3.651517216194516673e-03,1.897597809339681210e-03,1.892384810020477509e-02,1.605858729871091238e-03,-1.480226758366743126e-02,-3.973519839553594189e-03
-5.504334328609354621e-03,2.619131792168164635e-03,1.987956370006488047e-02,3.646907652325086756e-03,-1.852423473239769858e-02,-2.117034083550997127e-03
-7.515984710353688057e-03,3.351736609999363646e-03,2.042621089647254223e-02,5.476345781865417546e-03,-1.783018821750493449e-02,-3.908120360478771135e-03
-9.164173934986630937e-03,3.801828253655442722e-03,2.129030966784223322e-02,6.396805943331079249e-03,-1.799863461681921323e-02,-4.326135313022892379e-03
-9.869406969903925242e-03,4.054156282672856208e-03,2.244311805955893219e-02,6.015684675145962883e-03,-1.642012973154622149e-02,-6.223422315927572453e-03
-9.237581465173744927e-03,3.820600173635252395e-03,2.362358233159742721e-02,4.986160422752914170e-03,-1.612310015973644067e-02,-7.069661303075370010e-03
-8.049282654607491094e-03,3.642131867445622118e-03,2.277213688142052522e-02,4.341830658610867748e-03,-1.496778081520273342e-02,-7.739035937666738536e-03
-7.864771712943639456e-03,3.892217321416456283e-03,2.301079338422226672e-02,4.701609591384251288e-03,-1.617923597516266604e-02,-7.560612608916680508e-03
-7.933924689109410344e-03,4.062308064344061914e-03,2.299938568151145557e-02,4.644206374279426577e-03,-1.572691212258015697e-02,-8.045063308445418379e-03
-6.390851800238919744e-03,3.459128107480206708e-03,2.125752284168541326e-02,3.153522469417069200e-03,-1.529576647866095866e-02,-6.183555139682838514e-03
-4.288892196966165478e-03,2.800401597540870188e-03,1.927636629266844467e-02,1.541585505463938547e-03,-1.608894781187170109e-02,-3.240513386835428260e-03
-3.210702935435244196e-03,2.052114321960083875e-03,1.780042952150522051e-02,4.981562945227157105e-04,-1.473570485795144651e-02,-2.404292344601286022e-03
-1.399025134943239447e-03,1.018515601037566073e-03,1.484930764169491504e-02,-3.046499770778978550e-04,-1.228471856567732098e-02,-1.879429565034011502e-03
1.189142241628927824e-03,4.460365872761913646e-05,1.075243432577410209e-02,-1.211792033349885301e-03,-9.712372337859471669e-03,-1.062015854921205581e-03
3.094256147845567476e-03,-1.086321866669802665e-03,8.354983623502891532e-03,-2.711559939268906247e-03,-6.759274596922647607e-03,-8.920833684870819969e-04
6.343968381645938119e-03,-2.178329939747902441e-03,5.249368812149167278e-03,-4.998557851820631219e-03,-4.196450010155892626e-03,-2.199993920706659373e-04
7.341792862536778742e-03,-3.258862863566012492e-03,2.545872999192249145e-03,-5.193615213115935006e-03,-8.648189445966641790e-04,-5.703688404504365927e-04
9.577106910503639658e-03,-4.100473883960484983e-03,-4.213696604193548339e-05,-6.144816598792215458e-03,1.609019692957829950e-03,-8.986991546668409488e-04
1.253576873969962369e-02,-4.661790335487895134e-03,-2.833826008540536994e-03,-7.559257472803494055e-03,3.475588315133984821e-03,-9.564832380016879618e-04
1.238073260903176619e-02,-5.195677841028530780e-03,-5.060459403752315226e-03,-6.527283870732048139e-03,4.478282522728585339e-03,-7.559401624747781817e-05
1.193820084885469264e-02,-5.620376929226178486e-03,-7.797382686278480496e-03,-4.494158842607786329e-03,4.344666345423718774e-03,1.629051263834039752e-03
1.160862839997671599e-02,-5.882269506649729848e-03,-1.006925970256131869e-02,-2.293476631588296007e-03,2.842410748945582710e-03,3.793966691877074041e-03
1.096743659366674652e-02,-6.040922316109000739e-03,-1.178847138601940049e-02,-4.631426145593825418e-04,2.842335123005753240e-03,4.482764600015319741e-03
9.502145492774243321e-03,-6.311543596027396029e-03,-1.468065940892519794e-02,1.573566443666706005e-03,3.505200012949857315e-03,6.411291055561802073e-03
1.079455499131204942e-02,-6.353784891987429573e-03,-1.534921792703505990e-02,1.426345487291470445e-04,3.197983086155533825e-03,7.567830192825804152e-03
1.164614243906701187e-02,-6.481344477121588760e-03,-1.639213467021586462e-02,-3.185271357073470879e-04,4.279787602326767630e-03,7.266076241651015823e-03
1.124104050923780025e-02,-6.715747857117870812e-03,-1.700092229759773282e-02,9.899496591557481635e-04,4.078918496295581841e-03,7.406761490026396617e-03
1.057931260963342751e-02,-6.942661101523152876e-03,-1.623049211787299870e-02,1.662151514056133764e-03,2.359769211964546018e-03,8.571919883742064664e-03
9.496269484226908461e-03,-6.884791872691141922e-03,-1.503117390912594477e-02,1.122898245808247016e-03,3.110256429727663221e-03,8.186541622054305939e-03
8.850182070380758353e-03,-7.027328563464846183e-03,-1.228977132170752141e-02,-5.136136332493370179e-05,2.463837100185018239e-03,8.054442077931571117e-03
8.229226040219844024e-03,-7.055960712164383031e-03,-1.218934236152022753e-02,-2.860257292158338484e-04,3.476953031392034880e-03,7.825149731288554011e-03
1.085224711600488515e-02,-7.041042744988640183e-03,-1.386965578659116183e-02,6.769751175138026328e-04,3.520576341800449576e-03,5.860899956260659342e-03
1.039585953125760423e-02,-7.274591296424072311e-03,-1.282026133975771622e-02,1.032938825487043043e-03,4.367298374147093876e-03,4.298755905290056051e-03
9.811801910726780651e-03,-7.811462245038860649e-03,-1.055195479209971796e-02,-4.400544728384579479e-04,7.382292189304821318e-03,1.609377409945410026e-03
1.161636990626930578e-02,-8.704647147161903575e-03,-1.216901036002872305e-02,6.337601493190574749e-04,1.081179864745197318e-02,-2.188271195849729976e-03
1.123402469726168980e-02,-9.841710463070123954e-03,-8.226596421262766939e-03,1.032236135409420746e-02,3.639538424664970611e-03,-7.127617591687953995e-03
5.240535143942821363e-03,-1.058295609097032949e-02,-7.154007233822524264e-03,1.455936250659870673e-02,1.423214409455237153e-02,-1.629507842030099296e-02
5.232901594650418188e-03,-1.071420212588799527e-02,-9.426378803228534914e-03,1.567578908759743178e-02,9.262557398495985597e-03,-1.003066715162736523e-02
1.195804258244292755e-02,-1.029378249829007719e-02,-8.979371653166980452e-03,5.961517235596326680e-03,-6.539877831155009114e-04,2.007582116533293808e-03
1.342820375351965433e-02,-9.164535177927493614e-03,-5.680075587356585819e-03,-3.597037308368410645e-03,1.453755858453082642e-03,3.559688461679757446e-03
9.163492397600288275e-03,-8.632924820468394767e-03,-4.199113273146868816e-03,-6.722922045601997972e-03,1.040462899952124785e-02,-1.316125790427366477e-05
6.529871884537555640e-03,-7.647659557094436782e-03,-6.353661000144310810e-03,-4.589373689509399119e-03,1.111343852550404111e-02,9.473838367065732678e-04
5.703353876802131316e-03,-6.473606380672927881e-03,-8.471644103906824513e-03,-3.642420332282551680e-03,1.197477264489069972e-02,9.095442951694962443e-04
4.909640807981530478e-03,-6.029871483806285848e-03,-1.224952809754257035e-02,1.447963420147387287e-04,1.041094244081365236e-02,2.814019990539027606e-03
5.043355479444015105e-03,-5.849792938423179801e-03,-1.306596078498813672e-02,1.551287492511491811e-03,7.672597774968349660e-03,4.648512976487440863e-03
5.197918767586592534e-03,-5.638849824079926291e-03,-1.387855149492688879e-02,1.050489614193424355e-03,7.464934748890666820e-03,5.804058188336131373e-03
6.670138346808345865e-03,-5.422998383632271838e-03,-1.364122621628878831e-02,-1.167382843238503340e-03,5.939116421608056987e-03,7.622352674743201190e-03
5.392020627450999117e-03,-5.340129471022550707e-03,-1.186065794433928747e-02,-3.584795765238203095e-03,7.820393837937774859e-03,7.573168715211279003e-03
3.773711485677719735e-03,-5.506788334147182454e-03,-9.825614164661770206e-03,-3.364313321287924503e-03,8.995123785037126285e-03,5.927880549382053693e-03
4.292165173356630829e-03,-5.519388168157805460e-03,-1.108100118396362563e-02,-2.409475203819806850e-03,8.972589886587833963e-03,5.745109495996729779e-03
5.775186597600605147e-03,-5.354110896657223763e-03,-1.181571684403159156e-02,-2.429612625128975325e-03,8.540096360215578344e-03,5.284157408001654427e-03
7.834022072364435138e-03,-5.120971218206911077e-03,-1.065082045080574524e-02,-5.060237158905781310e-03,8.426515607652829837e-03,4.571491147901210819e-03
8.969640071660010469e-03,-4.959729615794599734e-03,-9.204967447483223750e-03,-6.939462105091076874e-03,6.882040591739123706e-03,5.252478504969795674e-03
1.136518368243926748e-02,-4.729378084574529031e-03,-8.031911685409754212e-03,-1.059651601653404697e-02,7.692285690250747279e-03,4.300336413828265147e-03
1.229270402634938947e-02,-4.439631472402490696e-03,-7.788477759788465030e-03,-1.110322667384541252e-02,7.639586581047366765e-03,3.399045298639610281e-03
1.209075062591440271e-02,-4.076444995406275883e-03,-5.390118157117588203e-03,-1.052643595757195641e-02,5.839938571704945784e-03,2.062309912476443380e-03
9.626361606394589002e-03,-3.553563868543757349e-03,-2.780356864977499235e-03,-8.879130191267292638e-03,2.470636575921614665e-03,3.116052742472360301e-03
6.356678843056125065e-03,-2.828462007967579191e-03,-2.702662933081229784e-04,-5.860588273752671482e-03,-8.775982527527574672e-04,3.480235984725024972e-03
3.859074675872248457e-03,-2.126217818107388382e-03,2.955528476672994280e-03,-3.714862781336867367e-03,-2.941541913168622090e-03,1.968019360067667627e-03
2.327317445079694208e-03,-1.330885485847055913e-03,5.782877107689529672e-03,-2.624876994435499170e-03,-6.453392748029111378e-03,2.298960675542450604e-03
9.157233608331652279e-04,-5.451503668726420714e-04,7.905860787636730808e-03,-1.455862266118978241e-03,-7.879687686110806860e-03,1.059116170632532113e-03
-1.660688703506733562e-03,-4.992881005194164338e-04,9.276406467569036501e-03,-9.029307470313257652e-06,-6.509573891984138730e-03,-5.978264640884374710e-04
-2.824757348480213658e-03,-6.453182719095466131e-04,1.082117996146931584e-02,-3.115952033052669500e-04,-5.265339622048620036e-03,-1.774169515725660664e-03
-2.976575961172029088e-03,6.223079844069327087e-04,1.312751392855050075e-02,1.851554948165313075e-04,-7.157678043053668920e-03,-3.800723403548259254e-03
-4.133505542402720820e-03,1.498601744521282962e-03,1.473278375000804802e-02,9.411415823538814198e-04,-1.119466680000447481e-02,-1.844354734475994219e-03
-6.050758767064644272e-03,1.989301155435685333e-03,1.641951082875871271e-02,2.666056261444868340e-03,-1.450550419100869043e-02,-5.186052875659449054e-04
-7.589622795180506372e-03,2.596464898019818814e-03,1.747396024792987126e-02,4.604861261823761480e-03,-1.529840256725575366e-02,-1.787261045337232724e-03
-8.948623670553591120e-03,3.177959088125894768e-03,1.844154779255480908e-02,4.895279360993496157e-03,-1.449802508088091947e-02,-3.068137490239679008e-03
-9.932913476738775005e-03,3.409741111919448089e-03,1.986500352507216197e-02,4.124644769977607942e-03,-1.191836914272975841e-02,-5.548106787500654662e-03
-9.762808424207174152e-03,3.423706633697798547e-03,2.081818120219950871e-02,3.936193327900510720e-03,-1.154050947744766388e-02,-6.874763262142934844e-03
-8.834693165652170166e-03,2.913766548335937345e-03,2.064771726152856909e-02,3.520254383666654007e-03,-1.054036240938835932e-02,-7.706682618490633130e-03
-7.922955433586066978e-03,2.285588288193701832e-03,2.030978517377646231e-02,3.710369077426203289e-03,-9.544106654142923973e-03,-8.838680451667408136e-03
-7.929226839049620737e-03,1.841934574686627645e-03,2.072737092768592651e-02,3.758707724889902898e-03,-9.224793665289591008e-03,-9.173992722923187196e-03
-6.504007671792630223e-03,1.740573051290953939e-03,2.010416125083538952e-02,1.913939921831335142e-03,-9.599234297830641985e-03,-7.655432254334372348e-03
-4.689069576677980244e-03,1.868504727133622192e-03,1.827666923934924761e-02,-3.201581020026495519e-05,-1.088304108249583783e-02,-4.541047497108770259e-03
-4.108013240365334176e-03,1.442064244754092490e-03,1.544016063658822276e-02,-2.301978519893529203e-04,-1.107546231224558302e-02,-1.468551476742060991e-03
-2.416423701950120000e-03,6.562045183407368360e-04,1.273813580433533904e-02,-5.877175899419244919e-04,-9.326807412848216877e-03,-1.063391617935793582e-03
7.388601047532721748e-04,4.046886404947881088e-06,9.860820516335952468e-03,-2.053543782294814553e-03,-8.856174946702873724e-03,3.059912215035325077e-04
2.870568028238699131e-03,-1.001555839535069395e-03,7.807452874048246422e-03,-3.651799252508328760e-03,-6.821608481645554875e-03,7.969426714020083451e-04
5.955610076332508093e-03,-1.823176746838231369e-03,4.391224954522886074e-03,-5.891121010146582390e-03,-2.825639083554814558e-03,1.931018096842469702e-04
6.482791877235310335e-03,-2.641348585987171073e-03,2.569484511989049598e-03,-5.786530894675266830e-03,-6.815554065196854840e-05,-5.562413679099668853e-04
8.407754628494476870e-03,-3.304463632979874350e-03,-2.631549065167856634e-04,-6.360948581643239598e-03,1.112004135790629813e-03,4.088083568548103838e-04
1.117648997814018122e-02,-3.628547437682930026e-03,-3.191311647081160417e-03,-7.276525917653561479e-03,1.929561232810726636e-03,9.903337914667690017e-04
1.116620462881594104e-02,-4.108366316270142468e-03,-5.077096144053493652e-03,-6.382030079133633148e-03,4.000645374459923728e-03,4.006425361814330106e-04
1.197626450699743744e-02,-4.619443655988863910e-03,-7.286242160377503878e-03,-5.883361019816966790e-03,3.108148059768818181e-03,2.704634269417106277e-03
9.802740288188725379e-03,-4.660470288527463964e-03,-8.111824626146377920e-03,-4.011083667690909862e-03,3.006912953336357813e-03,3.973725340839692408e-03
9.116962021683222214e-03,-4.701868152816381617e-03,-9.464831748402789333e-03,-2.855823944423026717e-03,3.246612299331804851e-03,4.658949524627188817e-03
6.835808172896973289e-03,-4.975557234278856107e-03,-1.155396878478212770e-02,-1.029253716595688976e-03,3.326413785025901775e-03,7.396557777733813767e-03
6.964425980317704400e-03,-4.985761769205005259e-03,-1.143727531779623573e-02,-2.411561375833065190e-03,3.084241929892771444e-03,8.785930552623862425e-03
7.418294285806838889e-03,-5.409547522504143911e-03,-1.151348361861430532e-02,-3.481511407778774356e-03,4.988142684245341907e-03,7.998105578845070979e-03
7.944122421238477769e-03,-5.615886894753952842e-03,-1.204028612867339906e-02,-2.142906318689074240e-03,2.411460748296156194e-03,9.443496172581819503e-03
8.182833629527229424e-03,-5.466195255473375175e-03,-1.372873330062435865e-02,-4.549972332733822266e-04,2.100984786326838463e-03,9.366107373517049139e-03
7.387811164005746688e-03,-5.594950095385382328e-03,-1.273597906596163516e-02,-1.259824890672973192e-03,1.942098815806908747e-03,1.026084407220732679e-02
6.894748471014183408e-03,-5.550805198853239232e-03,-1.020670240478170100e-02,-2.874397536555736363e-03,1.816829842968683845e-03,9.920326826207817583e-03
6.425435729184325942e-03,-5.720318095415823957e-03,-1.140703497348732887e-02,-2.806988317109336897e-03,3.331831027664760182e-03,1.017707462916341704e-02
9.567960686309421106e-03,-5.951681388227254496e-03,-1.365473178604916307e-02,-1.656220926408611630e-03,2.688015602499386082e-03,9.006657811876225481e-03
9.491029969651560219e-03,-6.606079495746723131e-03,-1.329220529260254427e-02,3.183555064500896399e-04,2.524588872558864491e-03,7.564310439688718031e-03
9.211129434090534543e-03,-7.212809042951582109e-03,-1.210993078652101984e-02,-9.374186365539499341e-04,6.384416317497363866e-03,4.664612714438661281e-03
1.160658151802201193e-02,-7.940237197580699360e-03,-1.326179285822755641e-02,-1.087734087442705560e-03,9.611583660911481725e-03,1.071598964317450105e-03
1.107295196245439151e-02,-9.337643104577365502e-03,-7.806850184231004311e-03,7.984815604271028322e-03,2.457726629111657655e-03,-4.371000907028653459e-03
5.056006121574561224e-03,-1.023147012043225910e-02,-5.517171559017561809e-03,1.228457421089272639e-02,1.286956877349785221e-02,-1.446150742651527467e-02
3.951139725793030057e-03,-1.000603709685210854e-02,-9.308695537495722053e-03,1.649439099422730579e-02,8.683996565090144198e-03,-9.814794650762669395e-03
1.029508065176248585e-02,-9.582238388227222806e-03,-8.742278444864566220e-03,7.311672284110983834e-03,-8.376733308130607973e-04,1.555437228031350105e-03
1.198334106990053827e-02,-8.300272928397970512e-03,-5.817467241216208243e-03,-1.739636405963347924e-03,1.185528253108059614e-03,2.688507252568970215e-03
7.759040577214028345e-03,-7.636932200473011377e-03,-4.796790651322232688e-03,-5.200128534358796836e-03,1.100129447163832562e-02,-1.126483662698333664e-03
5.295764194650147243e-03,-6.526307543132552243e-03,-7.128934122750702797e-03,-3.254680668703885480e-03,1.211295167875633093e-02,-4.987935388193223641e-04
5.060355356479918389e-03,-5.303656945329180729e-03,-8.595823939357361693e-03,-2.784793221275291310e-03,1.136156175626297678e-02,2.623569932189581352e-04
4.125767997634374219e-03,-4.765960070385038584e-03,-1.185362025378244692e-02,4.649338748988770349e-04,8.510544644667664832e-03,3.518333806966581455e-03
3.417948440579416346e-03,-4.430874093717435298e-03,-1.184048420044318123e-02,1.951016891669123815e-03,6.614171620638115839e-03,4.288221341273968333e-03
3.618073500628531981e-03,-4.278802592802087752e-03,-1.136405755871668609e-02,-1.728842954694279706e-04,6.946244171478848338e-03,5.251426774880832253e-03
4.401847736903242818e-03,-4.078727143189523480e-03,-1.047419329319967257e-02,-2.117167348158027675e-03,4.720194725873212704e-03,7.548045321770754761e-03
3.555524976463362869e-03,-4.176597600473520508e-03,-1.070744851917374875e-02,-1.958514383888669726e-03,6.065238599078979706e-03,7.221796927993624597e-03
2.109146707604541045e-03,-4.193678152293316141e-03,-9.719757363088570370e-03,-2.607045313597709541e-03,7.615495895643314625e-03,6.795838225731755562e-03
3.279320069929319778e-03,-3.979184229794006933e-03,-1.137781928849432127e-02,-2.831821069110777855e-03,8.239029757510056562e-03,6.670474759959775686e-03
6.164052120256326324e-03,-4.070168679064287316e-03,-1.132274424053331639e-02,-3.450803180263114448e-03,7.316266728928754251e-03,5.363397250675649292e-03
8.426809346947393073e-03,-3.876788928174956534e-03,-1.140521749005402388e-02,-5.606298359231131831e-03,6.993219658361838308e-03,5.468275772150935944e-03
1.079779188190740750e-02,-3.555609115797276655e-03,-1.094120833208417701e-02,-8.201153880113025083e-03,5.858359178655534426e-03,6.041820267431524671e-03
1.034349754242408666e-02,-3.473091340957147263e-03,-8.087836655059797361e-03,-9.962389914086152570e-03,7.496427880404540021e-03,3.683392487274529063e-03
9.586023195139931063e-03,-3.338944618455438711e-03,-6.674588254077726268e-03,-9.542842808443819866e-03,7.192880101459736032e-03,2.777472384377296065e-03
7.604220271574338615e-03,-3.050042024041017645e-03,-5.520248941722530854e-03,-7.962756270637529402e-03,7.882516653328987266e-03,1.046310311497756790e-03
6.414394126105472764e-03,-2.650665053587332020e-03,-3.958980057830776590e-03,-7.340393470732928076e-03,6.716051311060186081e-03,8.195931449853949714e-04
4.336370228856414703e-03,-2.292885280467219910e-03,-1.452810872327019989e-03,-5.638644884210943994e-03,3.577217485432416209e-03,1.470753322716339970e-03
2.549742292848870395e-03,-1.767500679804226990e-03,1.219997252775712046e-03,-4.009131208929516028e-03,1.925562303481640229e-03,8.133003962752052591e-05
9.733204308135863687e-04,-1.217146065293992765e-03,4.234591249243749127e-03,-3.256141159457250512e-03,-2.204955236543562549e-04,-5.141289316517276423e-04
-3.948593304819273146e-04,-9.655542081609887499e-04,7.028456803358615508e-03,-2.948207471161905929e-03,-2.869578219337109472e-03,1.497424257833091541e-04
-2.820122730101239008e-03,-1.750986994240517772e-03,7.961549022660621699e-03,-1.628477287059986811e-03,-1.735544948204047720e-03,-2.641706305482106366e-05
-4.346457630943569711e-03,-1.634982366881768123e-03,1.062372781094009580e-02,-9.926646704250701499e-04,-8.054847193405170313e-04,-2.844138423349177724e-03
-4.743571635541972593e-03,-6.235650094725361152e-04,1.347921453223811100e-02,-8.994612757024984286e-04,-4.030723881746395461e-03,-3.181892729774727160e-03
-5.919594986697045494e-03,4.386706334402201983e-04,1.523131612137704032e-02,-3.398734093920026422e-04,-8.618752259413907379e-03,-7.917660993142853739e-04
-8.211566286545254542e-03,1.139767843476077177e-04,1.752088300478693225e-02,1.556279995201389653e-03,-1.033326376136797613e-02,-6.463097364226737859e-04
-8.802022439312950225e-03,1.027687253789232903e-03,1.776897390645362784e-02,3.720847844351321283e-03,-1.324658999987174748e-02,-4.688965654095309400e-04
-9.997019776772060953e-03,1.963383521946491638e-03,1.788852734925586163e-02,3.962597774911114437e-03,-1.213167490783992677e-02,-1.685813961501487568e-03
-1.075829479200966776e-02,1.818547216820746038e-03,1.962297274056743965e-02,2.894679865108585725e-03,-1.002629941684741663e-02,-3.551605613639693525e-03
-1.242004235249001727e-02,1.453167503098124142e-03,2.028636029043488775e-02,3.868044799723037094e-03,-9.596990507697215553e-03,-3.590539733068750464e-03
-1.143748144886781205e-02,1.424612396822648539e-03,1.964564841536028603e-02,3.907894552080004406e-03,-8.264403257744940001e-03,-5.276270657650133575e-03
-9.654454687378887998e-03,1.502890523726201728e-03,1.921182232206266813e-02,3.725936457382067989e-03,-8.017594620074399228e-03,-6.768599995717689000e-03
-9.185793751790660364e-03,1.076499974924766644e-03,1.851321169164566599e-02,3.901464184153467969e-03,-6.641453183825737905e-03,-7.663928915107540499e-03
-8.210654541443434748e-03,2.531915237939311300e-04,1.750546756837399048e-02,2.752738902037461452e-03,-4.698060261121350667e-03,-7.602683191640652836e-03
-6.526602118545293645e-03,-3.649969474492046218e-04,1.585151377439040707e-02,1.225254532510187261e-03,-4.057622015720080064e-03,-6.127547225186016217e-03
-5.710294797437011696e-03,-8.562579026333723951e-05,1.324413805536901571e-02,8.924277654876952570e-04,-5.287959216151234994e-03,-3.052686017005131446e-03
-4.395369058169092472e-03,-1.387479298342342688e-05,1.065435806510071394e-02,4.662956247744874964e-04,-4.912507899550742907e-03,-1.798901939171957754e-03
-1.451616314305753273e-03,-5.347036515253710681e-04,8.514449767566580063e-03,-1.540880726963298267e-03,-2.782252375654117003e-03,-2.204996699118029826e-03
8.836690282888891475e-04,-1.042549593125584925e-03,8.084193670457833283e-03,-2.827288513296847151e-03,-3.770587315773788785e-03,-1.327437276550501788e-03
3.505449705536946899e-03,-1.739332137750044128e-03,4.369301481899066572e-03,-4.214513646069039873e-03,-4.993801498486878264e-04,-1.421525253768222020e-03
4.407344393145611224e-03,-2.635237742755471187e-03,2.270302579700194182e-03,-4.279216799823148433e-03,3.841693982282364580e-03,-3.604886412549540391e-03
5.931213326653797177e-03,-2.933813039979107657e-03,2.068745664550451270e-04,-4.763581076962623145e-03,4.783756509994166808e-03,-3.224450286161262454e-03
7.379203102905268485e-03,-2.762303434754839575e-03,-2.078341468725004165e-03,-5.289949652527629539e-03,4.808594220888195991e-03,-2.057202767785974717e-03
7.223255274418201310e-03,-3.105122303762717761e-03,-4.181097730351518785e-03,-4.145183133956703569e-03,6.710803691529168558e-03,-2.502655797876428886e-03
8.101350935927571772e-03,-3.619578311710982144e-03,-6.928315622771857515e-03,-3.465694301062424189e-03,5.590764246467448684e-03,3.214730531502442055e-04
8.222793940723461745e-03,-3.703545523680110488e-03,-8.606628654234472001e-03,-3.176839948606801061e-03,5.432996564601206765e-03,1.831223621196717425e-03
7.396769146891610074e-03,-3.558466692725378942e-03,-9.763558620830760371e-03,-1.970145933897774621e-03,4.712310612537403548e-03,3.183091488024923296e-03
5.134107222518305598e-03,-3.686567276164933338e-03,-9.569641701755312105e-03,-1.685664327503394976e-03,3.387736206162473510e-03,6.420029876742866515e-03
4.154100200439500915e-03,-3.786670491945835857e-03,-1.063706630406499598e-02,-2.141454516330864883e-03,3.882117606381174039e-03,8.528973505521033477e-03
4.005428547766138984e-03,-4.007933964934187222e-03,-1.034439775274774431e-02,-3.163983408211425152e-03,6.478123750263265271e-03,7.032762827863961973e-03
4.426733432953755716e-03,-4.376445024988254162e-03,-9.466448010501929758e-03,-2.070087295886762543e-03,4.118227198336041513e-03,7.368019700087157474e-03
5.609375158026265462e-03,-4.203628589253597357e-03,-9.669141291897340521e-03,-1.726913147711832191e-03,3.598367966102683415e-03,6.391939904733850465e-03
6.034098599373795280e-03,-4.180558542952831150e-03,-1.064921051680829331e-02,-1.647551266806969884e-03,3.185791633746721217e-03,7.257430093447611238e-03
4.315766176239392397e-03,-4.290761439239233234e-03,-6.676784664212533776e-03,-3.220426812549191751e-03,1.547285837972422595e-03,8.324920901789155045e-03
3.449442552967115286e-03,-4.569329598702346826e-03,-5.812679648811091941e-03,-4.620129010908309575e-03,3.694730448187065388e-03,7.857965257267604531e-03
6.481215576445819269e-03,-4.883519947924149993e-03,-7.482412786740956154e-03,-3.927148598770366719e-03,2.689219061221381768e-03,7.122646695768290043e-03
6.889828675779858906e-03,-5.492102408479655057e-03,-9.464809546689259209e-03,-2.540910585849588850e-03,4.633015716360471686e-03,5.974978148878182932e-03
8.316828896278881042e-03,-6.085526780877776459e-03,-7.934015439704927841e-03,-4.693938825728015407e-03,5.225259485210138888e-03,5.171392664821693706e-03
1.096869725424864071e-02,-6.868510373157816692e-03,-9.535367787407725282e-03,-3.725804316359340729e-03,7.031744441006683791e-03,2.129240781669578583e-03
1.100866989277524653e-02,-8.438480248176531348e-03,-6.181727726067934650e-03,6.984602778987444339e-03,-4.141471961669521118e-04,-2.958917501351238447e-03
4.565997960622716380e-03,-9.560852490082686131e-03,-4.701530945378094156e-03,1.175133287317659155e-02,1.066148703525871856e-02,-1.271643443359725921e-02
3.020567070632414024e-03,-9.259533312387486018e-03,-9.377187872765598009e-03,1.831925876751547277e-02,7.030695851776701255e-03,-9.733800504771378259e-03
8.944966581017859200e-03,-8.597113575410814459e-03,-8.733098800202039949e-03,9.468526297505578879e-03,-2.528538200075780475e-03,1.445257697165273567e-03
9.579896315050255920e-03,-7.221543991034723442e-03,-5.419471785838476247e-03,2.328008758599242676e-04,1.159540803058784755e-03,1.668777782904226886e-03
6.294446257467264938e-03,-6.633076725495112673e-03,-4.950564742251036855e-03,-2.960360405522677058e-03,1.058202167309978126e-02,-2.332466057298202694e-03
3.166932288812711500e-03,-5.389130649179075735e-03,-6.711846582283149260e-03,-1.674516024179409151e-03,1.265315654762696335e-02,-2.044595580798064336e-03
1.827516223101449590e-03,-4.197971183595246639e-03,-6.828778597563777732e-03,-1.710688113786338563e-03,1.238181687076428221e-02,-1.471895198920350869e-03
1.726795777723721080e-03,-3.554894347382650706e-03,-9.358617308707449858e-03,3.051010202244296122e-04,9.116979412653750461e-03,1.764635445488167698e-03
9.918194357268516389e-04,-3.383698270027295316e-03,-1.094514492017517777e-02,2.527906649068174978e-03,8.756648814756011479e-03,2.052468290651439983e-03
1.235730456625195109e-03,-3.538323646150145010e-03,-1.020183230975870575e-02,2.486861157387013619e-04,7.373086376054369118e-03,4.882653007490550534e-03
1.830691748893349853e-03,-3.257073356516802711e-03,-9.774006350192628381e-03,-9.242885374928063369e-04,5.921118734388933734e-03,6.203557760919986910e-03
1.313621088090249781e-03,-3.353943237894780553e-03,-1.157262341446964674e-02,2.944093354417985492e-06,8.331324888469814408e-03,5.278676582449961033e-03
1.194635979821061624e-03,-3.038502625096867714e-03,-1.241086629720605274e-02,-1.356516375071660247e-03,1.016750963440503017e-02,5.443739683148524251e-03
3.553850964358593739e-03,-2.823410598815929724e-03,-1.338695784106319793e-02,-2.482146355278421878e-03,1.019362773938865818e-02,4.945036091410307151e-03
6.990851231472861027e-03,-3.294015376429179891e-03,-1.218283916961475540e-02,-4.490372053743706821e-03,8.583520544254248305e-03,4.392854824060528872e-03
8.165371066111115975e-03,-3.017345687838810919e-03,-1.100816757117744314e-02,-6.013660275473962750e-03,7.251837688526127298e-03,4.621964779852964431e-03
9.997815023062735923e-03,-2.463267281327535807e-03,-1.080630021412557797e-02,-6.915599143762676815e-03,5.464945738046907142e-03,4.722405878106166605e-03
9.038869779139546007e-03,-2.115023965502732615e-03,-9.714331434865858261e-03,-5.605535166124389450e-03,5.325238854226433012e-03,3.070781933127043374e-03
7.281931767324096791e-03,-2.067436224312756057e-03,-8.111273151233437673e-03,-5.157726553676543479e-03,6.123714117458106329e-03,1.930790044440559893e-03
6.407191374179523752e-03,-1.881210338183873614e-03,-6.257162841199153010e-03,-5.645711172517555235e-03,7.336223713204964060e-03,4.066926451613069889e-05
5.677387205657630567e-03,-1.687035901222691883e-03,-3.695921333563315873e-03,-6.233716499320424674e-03,6.586691650659065242e-03,-6.474051222102708602e-04
4.229352742556724033e-03,-1.584250865109716223e-03,-1.175796593232760010e-03,-5.708753614051371821e-03,4.369728838443257338e-03,-1.302805086061101963e-04
2.678661565934202862e-03,-1.413193103975929300e-03,5.310486921951745529e-04,-4.612535839865420338e-03,4.103242659030803020e-03,-1.287223973318814751e-03
6.399179891720182135e-04,-1.525925607936213331e-03,3.562221463750628141e-03,-3.996618402879882626e-03,1.478916600206073902e-03,-1.585120423126345731e-04
-1.129197390547787873e-03,-2.212916342516957607e-03,6.001719943397947413e-03,-3.560389443175271829e-03,-8.706556255265584122e-04,1.771438858368623755e-03
-2.211563474140576784e-03,-2.725522618721997435e-03,7.797198444122506976e-03,-3.917567452506035518e-03,1.949310775591082999e-03,-8.918556743449882612e-04
-3.901108385926904502e-03,-2.330884836878860996e-03,1.020079226537540761e-02,-3.237421372850919285e-03,1.607805547743182319e-03,-2.339183217461915983e-03
-4.653001932494810894e-03,-1.691194242296370498e-03,1.247226926761972089e-02,-3.498370231942610296e-03,-1.372444706998165532e-03,-1.257258153887754349e-03
-5.990692862751753438e-03,-1.077378567721667133e-03,1.515447246051680567e-02,-2.396484513075823955e-03,-2.920351685530922243e-03,-2.769564831436635653e-03
-8.103638828299727231e-03,-1.251224052781525460e-03,1.795433250347036949e-02,-7.132302767835702658e-04,-8.244951419256154462e-03,3.587120736505463995e-04
-8.963145677449584764e-03,-5.937188946934339462e-04,1.793235652556782536e-02,1.151697660185208721e-03,-1.030161825620343717e-02,7.744286425934019573e-04
-1.043776561761990997e-02,7.630026892011029099e-04,1.808431370846148162e-02,1.966903592465493646e-03,-9.421227556307363790e-03,-9.552268162007741684e-04
-1.121263110388488402e-02,8.038682887402827772e-04,1.835327132650352300e-02,9.856289912262377034e-04,-6.687038094030427725e-03,-2.243099408554773046e-03
-1.326324152415987029e-02,1.094632567261558153e-03,1.966949888109057257e-02,2.758049870445902253e-03,-8.811040316971090886e-03,-1.447899477667049682e-03
-1.236510481345380434e-02,1.465847976931241572e-03,1.937302615112528742e-02,3.373620829680953632e-03,-8.652199138234716383e-03,-3.195191006048940865e-03
-1.021720664435107721e-02,1.241925848021405761e-03,1.928558677771062546e-02,3.052611329945653044e-03,-8.686536016958885595e-03,-4.676381294367669417e-03
-9.576740396545550121e-03,5.739260060033246754e-04,1.912476556717647436e-02,2.845319818091373090e-03,-7.269266891562997830e-03,-5.698004103162703643e-03
-8.772096814473610144e-03,2.947194587351291287e-04,1.757176181873253487e-02,1.630972921347789142e-03,-4.473432112451644627e-03,-6.251925271890276976e-03
-7.294141788666500675e-03,-3.104523487820014509e-04,1.608346744753872889e-02,2.046115756817783399e-04,-2.502691725518637819e-03,-6.180793160253378674e-03
-5.962338655363774720e-03,-1.070280245288004594e-03,1.382574238004921977e-02,-1.214626730491966296e-03,-1.802889973559906314e-03,-3.775606775345588008e-03
-4.795084877392956704e-03,-1.459304521677063553e-03,1.181087943842820676e-02,-1.509210543837302861e-03,-1.350949955890851876e-03,-2.696329539630009427e-03
-3.350271371511406426e-03,-1.426506736221610496e-03,9.219473228795049477e-03,-1.909492359198050474e-03,-6.356850166221906942e-04,-1.897517745241801904e-03
-1.356109000806144087e-03,-1.246760968682217091e-03,7.911845032654666113e-03,-2.456914083348754694e-03,4.712852331001190121e-04,-3.323346212917669632e-03
7.290840336521268355e-04,-1.455176473922152255e-03,4.490088772363908659e-03,-3.961994654756303795e-03,3.618616373396372262e-03,-3.420618050733932516e-03
2.183187210221707725e-03,-1.894179057345167635e-03,1.537742529733200809e-03,-4.763217685421870448e-03,8.119041943378400156e-03,-5.182574940566272992e-03
4.468508575140779995e-03,-1.735601774309556821e-03,1.932851736714911864e-04,-5.240206613449462959e-03,7.582720401744742766e-03,-5.268705762798007314e-03
6.138431666584665686e-03,-1.628634616253518382e-03,-1.795543148963646624e-04,-5.251454234303837634e-03,4.827321452107878781e-03,-3.906109953238798716e-03
5.583682505710251855e-03,-2.538272966582850489e-03,-1.072327703206344155e-03,-3.595778353444537088e-03,4.188994665941469207e-03,-2.566298148417998654e-03
5.315526337637920332e-03,-3.185155902335827429e-03,-3.770896546953704260e-03,-2.640732344974414288e-03,4.612509868925815729e-03,-3.312514122997770190e-04
6.362488778280170690e-03,-2.645744206430006556e-03,-8.152434928126034430e-03,-2.358916580108726211e-03,6.371025554240681774e-03,4.235813821439335988e-04
6.139757058706328020e-03,-2.365420892722319268e-03,-9.065482597564109013e-03,-1.389479578470604855e-03,4.455105385715904531e-03,2.225520624334826388e-03
5.167722829732772534e-03,-2.365598533282851478e-03,-7.061513608162745155e-03,-1.752529430780730814e-03,-1.360521089646120978e-05,6.025523953390046240e-03
3.728776467287904604e-03,-2.605149682860246826e-03,-8.072345615304907587e-03,-2.432486029584864703e-03,2.478874785527363477e-03,6.902330074934742363e-03
3.013826360878968467e-03,-2.715991648563610868e-03,-8.927107256767341861e-03,-2.466482869164520614e-03,6.221480416879914856e-03,4.874274996736599995e-03
2.082704132423937593e-03,-3.031584028144019161e-03,-8.005270586023375753e-03,-1.605145915018672906e-03,4.792347774263979072e-03,5.766948622498157227e-03
2.597087544277337703e-03,-3.184806011348265738e-03,-8.183219995435985633e-03,-8.699948415205788254e-04,3.560411790725631544e-03,6.080521513301858673e-03
2.988608913395420733e-03,-3.081352098896015818e-03,-8.250950106781125559e-03,-7.789444567286119090e-04,4.176654272308037361e-03,4.945983476702281098e-03
3.252881106550352310e-03,-2.947233172060771070e-03,-5.588383089984336541e-03,-2.231405446648864702e-03,1.757099273812708377e-04,7.338430674762348380e-03
3.374312503876294826e-03,-3.148665351765361775e-03,-4.919104725145713973e-03,-3.814378916218115478e-03,1.149976757259811751e-03,7.357859731993075109e-03
5.762248425963739304e-03,-3.757708682263047936e-03,-5.361546310177725538e-03,-3.286714022152084028e-03,4.764083238725928305e-05,6.596079756241874162e-03
5.713909651052788592e-03,-4.258345192468829254e-03,-7.093543735975084592e-03,-3.860899375131233036e-03,5.012879434046484985e-03,4.485999218475865934e-03
7.187328232130190710e-03,-4.984198273018226530e-03,-7.112979445543376675e-03,-5.070137038724342043e-03,5.481080430695482904e-03,4.498906094460298523e-03
9.804033667158359999e-03,-5.915885376463226979e-03,-8.237261224847910318e-03,-4.522994459682048302e-03,6.410251598451714890e-03,2.461855795383083387e-03
9.598725098007706777e-03,-7.511402765049410464e-03,-3.688016015716512851e-03,5.349809464768392683e-03,-1.888390498249188643e-03,-1.860725283760994875e-03
2.917018741592465342e-03,-8.829983554117168398e-03,-2.424494002082191752e-03,1.052129327463112267e-02,9.476063535745815614e-03,-1.165989799576997235e-02
1.285422771006596932e-03,-8.281583143075317566e-03,-8.173370142950197800e-03,1.899618226461115278e-02,5.830912119735170290e-03,-9.657563869327435643e-03
6.980463581640638550e-03,-7.369770592874326336e-03,-5.957993151821663717e-03,8.774286974130610442e-03,-3.865236331260076420e-03,1.438249520184834394e-03
7.387138649777633299e-03,-6.326298226615370730e-03,-1.800984441433412875e-03,-1.048992626143454470e-03,1.485240302885330508e-04,1.640612614126092921e-03
4.660412149191977410e-03,-6.103536428504528419e-03,-2.178765982464646572e-03,-2.793588714241069127e-03,9.371321774274708749e-03,-2.955842798256444210e-03
8.586360714365176951e-04,-4.761959498221080347e-03,-5.529482362140221950e-03,-4.432139298395241437e-04,1.341410941780088982e-02,-3.538089699036578526e-03
-1.226076316475702621e-03,-3.645464719071656121e-03,-5.416567267803595875e-03,-1.034043640821049605e-04,1.312687100277202396e-02,-2.735358335338966031e-03
-1.143382490011621419e-03,-3.075210914615921724e-03,-8.925933040125552664e-03,1.705987505801901836e-03,1.190688086968879657e-02,-4.683419307375647042e-04
-1.210040122642794909e-03,-2.905052717620556276e-03,-1.131738394015206067e-02,3.249096084589092170e-03,9.434451072874137229e-03,2.748929622952183110e-03
-9.404916163430849727e-04,-3.673677121176522568e-03,-1.061158402712393360e-02,1.185757077570940080e-03,1.086657411379716824e-02,3.173421573275405066e-03
2.275196522983364474e-05,-3.177305551829886967e-03,-1.085930053623065245e-02,2.668117890857123978e-04,1.001867917758242701e-02,3.728363156162611217e-03
5.113393687991224035e-04,-3.070685103469166042e-03,-1.340779357397983533e-02,1.787349919687756432e-03,1.063779670259856758e-02,3.541992686363547912e-03
9.567991798545618385e-04,-2.927571296908427437e-03,-1.246450308811033504e-02,1.460067037499442793e-03,1.162376525659866190e-02,1.351442911066071551e-03
4.164679343184727288e-03,-2.743661743467973486e-03,-1.390110939267573224e-02,-1.009840247931431998e-04,1.160826296115520517e-02,9.728128565968779387e-04
7.463166294121292670e-03,-3.227572362363775003e-03,-1.235367921915815972e-02,-2.321068629686675114e-03,9.545384643114145778e-03,8.937692739731526370e-04
7.930287970848928433e-03,-2.768243003077985008e-03,-1.022831181764216786e-02,-3.488519659941412103e-03,7.255170656867300158e-03,1.299615852945274364e-03
6.854025800187242556e-03,-2.225649449281059088e-03,-1.023157419615143213e-02,-2.596826773971382639e-03,5.795619659318819276e-03,2.404404959897807684e-03
6.861368122175113410e-03,-1.550510207534106389e-03,-1.077044247430535874e-02,-1.627280455885265565e-03,6.718893197265610184e-03,3.679718182840249893e-04
5.684272811068006789e-03,-1.439634172392856249e-03,-9.786142740417128061e-03,-2.401796271784918235e-03,8.415237439896774280e-03,-4.719370663698647006e-04
4.384605012022523354e-03,-1.505201746516837778e-03,-6.428732057665061464e-03,-3.268717000363074564e-03,9.364038518076923251e-03,-2.545992725554463692e-03
3.042442081236645252e-03,-1.582530184318703490e-03,-3.787533799534751385e-03,-2.766241475990711702e-03,8.595387148070876213e-03,-3.501523769463312386e-03
2.735778165735653408e-03,-1.497897804650802790e-03,-2.039159584270742488e-03,-2.513789446250954372e-03,8.364299374257705075e-03,-5.049230704820855363e-03
2.436994930301635259e-03,-1.542382911966753110e-03,-8.498315531543913261e-04,-2.685938726246221708e-03,6.099020955183476721e-03,-3.457862694117757110e-03
1.435292368566527896e-03,-2.592261869995887182e-03,-7.406580569222194835e-04,-2.354097528328860135e-03,3.992595149039369212e-03,2.591299376410861172e-04
1.855944005748300324e-04,-3.873330175968445893e-03,1.990546176807412616e-03,-2.442866644805045864e-03,4.426956319195086281e-03,-2.869000758038412120e-04
-2.829761248005328595e-03,-3.158182533002329602e-03,4.805359253169140532e-03,-1.625547354328470617e-03,3.745126925385307108e-03,-9.369950432183267409e-04
-4.700764396163463650e-03,-2.526203332752526357e-03,5.799022534750242382e-03,-1.389179707274097730e-03,4.706017219395568392e-03,-1.888892317955713713e-03
-5.589146166739115268e-03,-2.417317072653365519e-03,9.104954510572393564e-03,-1.275377119946844839e-03,3.738291993342834126e-03,-3.561406144575898595e-03
-6.967090603606405745e-03,-2.275616845354719656e-03,1.154818189627353393e-02,6.808847990050606635e-04,2.662398782141449979e-04,-3.252599124531662875e-03
-8.405511789549869120e-03,-2.184707576725748463e-03,1.376646814167298456e-02,2.415811368314780497e-03,-7.969326133588590377e-03,2.377265989876412109e-03
-9.951134896313463055e-03,-1.958193849878759382e-03,1.457733579415035341e-02,4.065669922184226605e-03,-1.059960639639203478e-02,3.865929426249679803e-03
-1.125205385139714520e-02,-4.858869471196664838e-04,1.557668871295861228e-02,4.831159847825599457e-03,-8.640157335487957599e-03,-2.975042677943708219e-05
-1.236482995014052261e-02,-1.772604189008828064e-04,1.641658540554156998e-02,3.445856449835089496e-03,-7.223758293621392219e-03,-9.659319271380872559e-05
-1.425509373120589438e-02,7.811249697196643877e-04,1.702168023929239923e-02,4.504184737434459469e-03,-9.506609895792607692e-03,1.454713680551911322e-03
-1.427027071418835932e-02,8.462588710948025332e-04,1.761802150937987615e-02,5.669724939576403777e-03,-9.454113966935764196e-03,-4.096206389269611142e-04
-1.154185001621233289e-02,1.407800060595896152e-04,1.819740565899512913e-02,4.217692101135181275e-03,-8.872979118847079336e-03,-2.141048631130501589e-03
-1.015949376395414334e-02,-4.858629566105729727e-04,1.774991941319520664e-02,2.810210962180773476e-03,-6.676866781226864500e-03,-3.237906873584394090e-03
-8.935498077600606548e-03,-8.534478270611989487e-04,1.707016305837870049e-02,8.164718977178537585e-04,-3.432624722714251297e-03,-4.665064328720506560e-03
-7.258458390296882237e-03,-1.187372949285208940e-03,1.531777784755882291e-02,-1.141528705934928296e-03,-4.048544410063383914e-04,-5.325563361035475125e-03
-6.020538423484885805e-03,-1.313924957322248118e-03,1.248650749359330424e-02,-1.943715736031935426e-03,1.624569826168705900e-03,-4.832898202922920189e-03
-5.169797867070626517e-03,-1.801627027040175093e-03,9.501691481027307873e-03,-1.854138179740609732e-03,3.358946642937761431e-03,-4.035075050113649288e-03
-3.254904783174241041e-03,-2.322192247300378359e-03,6.998997951858266543e-03,-2.549901940894965923e-03,4.210177826496401543e-03,-3.082176806985087100e-03
-1.761751683669880459e-03,-2.243944195842985812e-03,5.222104766193255525e-03,-2.942109557217349129e-03,4.624631693548784950e-03,-2.898931023011827677e-03
-1.020901973725086079e-03,-1.649355368928540630e-03,1.770950201220254736e-03,-2.997368844059016078e-03,7.325077730019502464e-03,-3.428401744527115498e-03
5.106406043870292781e-04,-1.383737197961549181e-03,-1.317072345811566092e-03,-4.298541978224479192e-03,1.233921103904820141e-02,-5.850500121437624511e-03
1.861771632107166001e-03,-1.033826817869273234e-03,-2.932753918544064777e-03,-3.900747075062481386e-03,1.206167441691083191e-02,-6.056118237542186533e-03
4.140433504421094091e-03,-9.240266687322853598e-04,-3.220480565452338122e-03,-2.586946999933245270e-03,8.754859120980743037e-03,-6.163838391283966642e-03
4.335130552612524724e-03,-1.608387629803729969e-03,-3.425410522404032619e-03,-4.371075528328969206e-04,4.626957871323423253e-03,-3.491182718895284674e-03
3.537078035197015798e-03,-1.934351833060800200e-03,-5.681777402145842502e-03,7.497884963266654608e-04,3.867823461569318624e-03,-5.385607578863376658e-04
2.220603813649653976e-03,-1.541775549170857013e-03,-7.112039811398935575e-03,1.079027738665120804e-03,6.307500580447749500e-03,-9.533167721927444851e-04
3.496946575693514470e-03,-1.246047280155627990e-03,-6.310743613425220076e-03,-1.329531064855861628e-04,3.236372677201756858e-03,9.564247471711488343e-04
3.859146016659279355e-03,-1.125174981632631787e-03,-5.655987077678658985e-03,-1.735722542921096191e-03,7.466675499294293718e-04,3.911071035643681054e-03
2.661711676748386695e-03,-1.189055197998724681e-03,-6.509711969548687485e-03,-2.668393402141467936e-03,3.955521959564542445e-03,3.749926933375947059e-03
1.665868023551112269e-03,-1.289782830531675285e-03,-7.813867997827971673e-03,-1.160147987470131967e-03,4.550587173424072013e-03,4.047343618854597029e-03
-4.770140319764998955e-04,-1.818719289164497360e-03,-6.930365249032940933e-03,-2.105906889676232966e-04,5.597311327278144469e-03,3.839377931863441167e-03
-6.744398502815333180e-04,-2.082334300896911041e-03,-6.940584636352932664e-03,3.037902223770507100e-04,2.683178930854306869e-03,6.710389634300039340e-03
-2.864070631752679385e-04,-1.571021708305367186e-03,-6.943078038204877726e-03,3.594052130190412953e-04,4.383432862670832812e-03,4.057668733995637225e-03
9.429894648430515091e-04,-1.657574560437824604e-03,-6.074774259399729794e-03,2.225914504792876722e-04,-1.043370690022573863e-03,7.610138594537797264e-03
1.627402920075815031e-03,-1.852742959760501429e-03,-4.834817324018137775e-03,-2.363087961119351033e-03,1.879033374016044107e-04,7.235341987420584701e-03
4.149639063613472234e-03,-2.275762584109051242e-03,-3.853803104723725181e-03,-2.491111133068670946e-03,-2.201619831675500748e-03,6.672657589963475883e-03
4.043265239267969900e-03,-2.960677375028656234e-03,-6.651186730459980601e-03,-1.800103860837713992e-03,2.524448116125129794e-03,4.844254610933251999e-03
4.978564998901440289e-03,-3.842420661158683394e-03,-6.663046255365854056e-03,-3.429598810920937452e-03,4.582573754315828925e-03,4.373926974228207858e-03
8.404933127432654555e-03,-4.702961737711622986e-03,-9.200114804504201660e-03,-1.757170397848474173e-03,4.625442303157080610e-03,2.629871509474576447e-03
7.383724567841891927e-03,-6.463659625122506781e-03,-3.660083926380287758e-03,8.372335571321408432e-03,-3.458274901111885961e-03,-2.174041686548644145e-03
2.066936349872699943e-03,-7.682590534415049965e-03,6.496092143115625764e-05,1.176880113349406537e-02,4.983315800026973802e-03,-1.120142367040976444e-02
-7.617232133870532104e-04,-7.254914365243682849e-03,-5.157360159109822262e-03,1.960222382933298618e-02,2.928384392906314710e-03,-9.356610484498732380e-03
5.525154824383713206e-03,-6.254985437119772035e-03,-3.646041360438657258e-03,9.137787180488623692e-03,-6.228169045922497989e-03,1.466253838608602309e-03
5.645362239209352970e-03,-5.179573404333032149e-03,-2.577360056817590999e-04,6.447526049524488758e-04,-1.821669449789361291e-03,9.688640156423419672e-04
2.039821908977443917e-03,-5.067683384232667294e-03,-3.429475867997003780e-04,-1.239909327981248257e-03,8.275536393625831585e-03,-3.664818003589676108e-03
-1.186949226114561613e-03,-3.949404452279419754e-03,-2.653580774036489419e-03,1.988522075186703651e-04,1.249993723808067413e-02,-4.908854993168883761e-03
-2.932111415859169849e-03,-2.566885974625778173e-03,-3.798508845665302894e-03,2.902151852963956035e-04,1.121841994284458917e-02,-2.211128891990763942e-03
-2.422426812589183534e-03,-2.184502120791908218e-03,-8.526267531782255951e-03,2.951097944386045675e-03,9.928941617564220404e-03,2.531569032130626508e-04
-3.429864849721226024e-03,-2.062874682869120322e-03,-8.989412370031136384e-03,3.409575833066438508e-03,1.141415141004050414e-02,-3.415753404854816552e-04
-3.767236178438105199e-03,-2.236870509021815761e-03,-8.347597464968334671e-03,2.065576656282549963e-03,1.073415037949738450e-02,1.551977116648357163e-03
-6.743104059790182118e-04,-1.856781499440285409e-03,-9.520571164552441359e-03,2.192459816598156183e-03,5.792739515300472306e-03,4.066463738073148801e-03
1.294588105449365548e-03,-1.286232175174828202e-03,-1.099453346195397065e-02,1.783690329149582908e-03,6.230179927775177616e-03,2.972307274754700315e-03
6.426796952019873986e-04,-1.366465885833916720e-03,-1.093073837469815679e-02,3.040087998001891976e-03,6.627185008879134254e-03,1.987251558449055436e-03
1.995592208585591533e-03,-1.782968719245875107e-03,-1.208656461565619546e-02,3.905197810688142927e-03,7.486263400266275798e-03,4.824799153620722863e-04
4.160876530645761691e-03,-2.102244569201558791e-03,-1.032155978469758741e-02,2.537757444080607216e-03,5.973560111941224673e-03,-2.483897327684614787e-04
4.395277387530358883e-03,-1.599412074315214064e-03,-9.524895689251610884e-03,6.144738031074316147e-04,4.810539068984976546e-03,1.304017503944099104e-03
3.573421077453178656e-03,-1.238883348997976220e-03,-9.699153278226301661e-03,3.845278560337651131e-05,5.405748571720273704e-03,1.920414192447475119e-03
3.708550344704169850e-03,-8.772294615136430433e-04,-9.477339581238856947e-03,1.286366952535740113e-03,6.057131042984674300e-03,-6.974792974720786347e-04
3.677362138505436712e-03,-7.450708417395624037e-04,-6.819325941526968582e-03,5.648178272579425105e-05,6.023953340395979059e-03,-2.193400478360663444e-03
4.284673031397037007e-03,-7.984599380803951083e-04,-5.012655670900457126e-03,-3.721959997400196341e-04,8.064932792048158314e-03,-6.166294214724303557e-03
4.262522015619161705e-03,-1.440052531304918072e-03,-2.762975175328442716e-03,-1.006669042686113129e-04,9.347203213910915132e-03,-9.306030618628122544e-03
3.746040415621405308e-03,-1.563926392821594468e-03,-3.508886510724078928e-04,-1.198780161243818412e-03,6.859136725837773618e-03,-7.491581936321365688e-03
2.787392997379605636e-03,-2.154732525439796622e-03,8.165041310581556619e-04,-2.458151574109308703e-03,3.841600028690864491e-03,-2.832613057579478396e-03
2.596752652152962190e-03,-4.347906918156569343e-03,1.141493672556419779e-03,-1.823544129350777778e-03,6.115437974884767140e-03,-3.682233252086764257e-03
2.062108533866249815e-03,-4.428565039212390905e-03,3.944741983551317520e-03,-1.980882922286709025e-03,4.790206214845861565e-03,-4.387608770764316393e-03
1.128960386919238435e-03,-3.861033105823057174e-03,6.711184907411999953e-03,-2.759587858286149161e-03,2.644837611835947934e-03,-3.864361942057973915e-03
-1.124989039644339744e-03,-4.530775381910807573e-03,8.892886654713300087e-03,-2.689578346938156349e-03,3.038438680932716539e-03,-3.585982567152719031e-03
-1.508361217629918373e-03,-4.105470435371049928e-03,1.017186104467074186e-02,-3.107967180481896029e-03,4.356821625458630505e-03,-5.806883836646499139e-03
-3.093447173870420702e-03,-3.158049223194635963e-03,1.155701487231507694e-02,-1.736294579992403539e-04,5.606903745556012430e-04,-5.692579391806388243e-03
-4.844448711561060404e-03,-3.229388188355527059e-03,1.374841118141788623e-02,2.386211317932449092e-03,-8.124749929072515656e-03,6.396432963879045228e-05
-7.136772397555078695e-03,-3.558933792703047969e-03,1.482107829637171678e-02,4.498738667294330425e-03,-1.105068456976741192e-02,2.426573796359433269e-03
-1.079084658825234244e-02,-2.421842246650814361e-03,1.614446375875312062e-02,6.998116016724385303e-03,-8.649191325476359923e-03,-1.280699615098043840e-03
-1.474941783080688414e-02,-2.581139023895434332e-03,1.732616295389226638e-02,7.898114979408541597e-03,-7.423204632460597002e-03,-4.705164461379160857e-04
-1.447791496434707066e-02,-6.808208667934960868e-04,1.716535421792684743e-02,7.608248752455863857e-03,-9.335797112419871868e-03,-2.790700268222500650e-04
-1.338088032750479536e-02,-1.047657892029645044e-03,1.745605209885236694e-02,7.220563108180706735e-03,-7.960033172936696252e-03,-2.288043814561964776e-03
-1.002242655758117662e-02,-1.172212681308552494e-03,1.800232431680183834e-02,5.953355946825959234e-03,-8.067165429843439761e-03,-4.693875594894684859e-03
-7.797946244194654992e-03,-2.411819625146711249e-03,1.797351013909595507e-02,4.030818229680512704e-03,-8.405583477760877192e-03,-3.388979021674209165e-03
-6.657739976952948419e-03,-3.161920530517864803e-03,1.682853429627569758e-02,1.677801587022929863e-03,-6.436456662492762160e-03,-2.250218713335044689e-03
-4.340443733146003361e-03,-2.777078711553250447e-03,1.503788307742087021e-02,-5.149201109968426678e-04,-3.652628994261959000e-03,-3.752811527462820811e-03
-2.477164606898485475e-03,-2.854427165794031374e-03,1.130334364408488827e-02,-1.485371331150250104e-03,-8.340702750229494165e-04,-3.652310265219161495e-03
-9.926215428597282616e-04,-2.810974168285081554e-03,8.108701758129374659e-03,-1.923369899525522722e-03,2.669974624573032487e-03,-5.051710772032077211e-03
4.288436088947607705e-04,-2.298453651418934200e-03,4.693251887176001780e-03,-1.829421166547596156e-03,3.622688386142154486e-03,-4.616909064246365810e-03
2.737699042653311127e-03,-2.250268329076968079e-03,3.115186073735331466e-03,-2.741987725772879712e-03,3.822351452765799119e-03,-4.682980514304598690e-03
3.990194015040661284e-03,-2.302120899000627361e-03,8.473379027800691070e-04,-2.665137366011388013e-03,5.190635342514920807e-03,-5.060908995323604165e-03
3.312034221014214033e-03,-1.296830147465271232e-03,-2.597305243489700897e-03,-7.246804620787603533e-04,9.297469788789364600e-03,-7.990688156769868919e-03
3.934551227015672427e-03,-2.370499634989347432e-04,-2.866103767675595455e-03,-5.966143257685864541e-04,1.034955413121701508e-02,-1.058433730128955849e-02
4.409198962751660102e-03,9.689471249613252550e-05,-3.742584412116598848e-03,1.493488509588562383e-03,6.503628327801111789e-03,-8.760626100520892481e-03
3.483517479243739522e-03,-4.172685109577851329e-04,-5.738386226659611053e-03,3.852109888949786440e-03,5.211100203838544762e-03,-6.391072834414702510e-03
6.518108158938457119e-04,-7.887367698637163475e-04,-5.340967492755730600e-03,5.511525082941864072e-03,2.470866655284721398e-03,-2.504498291500966128e-03
-5.987703978764620169e-04,-8.101319384289385741e-04,-4.281657720495580209e-03,5.512523542964851107e-03,8.674531924595228370e-04,-6.894166786233880484e-04
1.077640099999880490e-03,-1.900618775834312399e-04,-3.252741969783728548e-03,3.999896280173110587e-03,-2.444701712187825286e-03,8.099691793820045947e-04
7.626223688969574867e-04,4.059563349217470616e-06,-1.109312763735456706e-03,1.430613485798487008e-03,-2.676245248052575715e-03,1.588262593743374135e-03
8.644299580407392161e-05,2.401684071765230639e-05,-2.595392653590125782e-03,2.297881723587679673e-04,1.896847255666194712e-03,3.582973890434381866e-04
-4.011995190738102258e-04,-1.533186871663327314e-04,-4.439989953149509061e-03,7.677842906206404881e-04,3.984072157289748894e-03,2.426517114792798202e-04
-8.809595620492197262e-04,-4.633274191088794145e-04,-4.744772621099806534e-03,1.379843684389981274e-03,3.397085896319317153e-03,1.312130021548594833e-03
-1.919391847859619428e-03,-5.846972477256181383e-04,-3.786136539804647438e-03,1.600037249307032601e-03,1.293447534516798964e-03,3.396740851566062112e-03
-2.538523745883040222e-03,-4.334582898934648200e-04,-3.743567949990642303e-03,2.142639151122054109e-03,6.035016941578329880e-04,3.969409140487280795e-03
-1.364576119300245621e-03,-9.863472126654968062e-04,-6.724084316612753990e-04,1.151915370392685156e-03,-2.555082639778935311e-03,4.426499033013276546e-03
-1.319392311158099030e-03,-9.936485127602901445e-04,-3.203962642737223448e-04,-1.209800305091389677e-03,-3.118468242885094090e-03,6.961705636168605098e-03
9.476138129765826826e-04,-1.178680528404126970e-03,1.170311614896421375e-03,-1.150477602689130166e-03,-5.846138466416918832e-03,6.057371169637162586e-03
1.423771795401867308e-03,-1.786545562779501663e-03,-1.179068383247260012e-03,-6.655284957107644034e-04,-2.211898015902341846e-03,4.419268662237994111e-03
2.094469145043190410e-03,-2.638954026988539221e-03,-2.030505772489147893e-03,-2.059698531286585036e-03,5.155030263183136451e-05,4.583138883089245448e-03
5.634403646741502868e-03,-3.454920740827858907e-03,-3.934969339022650198e-03,-8.581549968919865729e-04,1.978317825368576435e-04,2.415809647464146632e-03
5.363951127754493231e-03,-5.207207130231928695e-03,5.556696088015738869e-04,9.384870924090368480e-03,-6.472105449344058188e-03,-3.625179081070391360e-03
-9.712415530026335877e-05,-6.725972852825613281e-03,3.322055501756450598e-03,1.367021137321629623e-02,1.630916077582541569e-03,-1.180008594442935252e-02
-1.917290794563927987e-03,-6.204430231428289221e-03,-2.543611462725727402e-03,1.986003385541511637e-02,1.238553005456058658e-03,-1.043325437215318792e-02
3.324468744164226462e-03,-5.430562492950612510e-03,-2.496106474962879137e-04,9.879695151518449667e-03,-7.481330814325067025e-03,-4.265994091069861074e-05
2.286213259933131056e-03,-4.351847048445225963e-03,2.009035061927710083e-03,1.700771535034358841e-03,-5.243632336053822380e-04,-1.119809574844597526e-03
-5.552142342739379774e-04,-4.375847249234357528e-03,9.440493285347498339e-04,5.579729045521877135e-04,7.477163759854588317e-03,-4.048124509433224071e-03
-2.991116077098605105e-03,-3.251556967043794065e-03,-1.590968572862789436e-03,1.750655125694085181e-03,1.100590028987418791e-02,-4.922913798563076891e-03
-4.911792407488902758e-03,-1.884657799977036089e-03,-3.141123669428268466e-03,2.087469056264900941e-03,1.154302088120933052e-02,-3.692916060580036294e-03
-4.719020208198404683e-03,-1.520025196414624951e-03,-7.740393663357192887e-03,3.902441269125514391e-03,1.128569428045246743e-02,-1.208696481607735669e-03
-6.001990092373921462e-03,-1.417691785131873364e-03,-9.150240740335508632e-03,5.732063657120068344e-03,1.014901827487598406e-02,6.888406858452269903e-04
-2.967600579915757267e-03,-1.365264666439212340e-03,-9.069913367039317970e-03,3.581741698033268605e-03,8.602397732049505558e-03,1.218639183311491731e-03
-9.798547475735421876e-04,-1.113843309387061971e-03,-8.775636954031332954e-03,2.845968157059899310e-03,7.382437775368537979e-03,6.409290785635074136e-04
6.335295490116570711e-04,-7.250357357455345514e-04,-8.461512052165024930e-03,2.151831564102239195e-03,5.226579431889252954e-03,1.174607242907424031e-03
-6.365072979563683687e-04,-8.837887843301233531e-04,-9.287384136514578378e-03,4.206753507553620368e-03,5.535552980007072896e-03,1.065373731240349840e-03
-6.780110690370273535e-04,-1.236438166646580293e-03,-1.052275588802345854e-02,5.395975285152039905e-03,7.718175631482313351e-03,-6.769457929272918372e-04
1.199122469737322122e-03,-1.546678048630819105e-03,-9.275330741955876979e-03,2.958458819608319763e-03,9.178128628586154289e-03,-2.513701127345124159e-03
1.794565641551954275e-03,-1.155192623816000139e-03,-9.028887871207289667e-03,2.443951722300869919e-03,6.688065711395162379e-03,-7.425025802246901533e-04
2.421984655912196808e-03,-6.204630160128902583e-04,-9.909949736177712035e-03,1.342649891194192891e-03,6.932779373277088951e-03,-1.670011681928922672e-04
2.554128355439612332e-03,-4.602423878933525046e-04,-7.159376402892945850e-03,8.532677849066442385e-04,5.903174088847171555e-03,-1.690951438407133295e-03
1.136777172627634249e-03,-6.280316969952268657e-04,-4.529653584446583815e-03,5.520563323592294269e-04,5.824353387169795351e-03,-2.355501610714847913e-03
2.149781563446927484e-03,-5.091098228297887820e-04,-2.181224711470709874e-03,4.159187260007040916e-04,8.259456424525806958e-03,-8.134822179672894504e-03
3.862209806989961962e-03,-1.207267336175863771e-03,-1.176825199568621010e-03,-1.105827450686325481e-03,9.387342051174640822e-03,-9.759631871733818326e-03
5.103722213881553733e-03,-1.673251469797520713e-03,-2.684838412913415203e-04,-4.257579385527130236e-03,8.105586002755540281e-03,-7.009993520021138950e-03
6.443013200831450467e-03,-2.804967182753265436e-03,-2.629800998581497502e-04,-5.437215728308364589e-03,6.391321190205877245e-03,-4.329171380117533517e-03
7.331784435634372370e-03,-4.788317308647047424e-03,2.585951720454572698e-03,-6.846611680325038335e-03,7.107087964559375727e-03,-5.389895131676200775e-03
7.150931777210815798e-03,-4.767635789396710427e-03,4.565908017696428123e-03,-7.648770160090157325e-03,6.638666713056776483e-03,-5.939100558477190817e-03
3.558021658502380849e-03,-5.534870442457466393e-03,7.126438473117499735e-03,-6.151640293192698304e-03,5.077534237787650548e-03,-4.075483633757396792e-03
1.978615854701769837e-03,-5.859149360540288724e-03,9.947528287016657589e-03,-6.445471534289697914e-03,5.128692826794753121e-03,-4.750216073683216460e-03
-4.203705093199157258e-05,-5.321413260756361480e-03,1.139978661497244306e-02,-5.626692544201341954e-03,4.523498967581723873e-03,-4.933142726664466182e-03
-1.651853258786234631e-03,-4.192074950879274252e-03,1.200511499482155922e-02,-2.523819029680894957e-03,6.996216553637321298e-04,-4.336989410838905726e-03
-4.504217989500011905e-03,-5.658723789962928456e-03,1.398672567047080754e-02,1.714656197602110839e-03,-4.589776559872134169e-03,-9.486635287378401664e-04
-7.607208114579868015e-03,-5.630731710097295999e-03,1.564055402690099628e-02,5.094855483777885503e-03,-8.712354299891747131e-03,1.214884613890086394e-03
-1.284497230964124805e-02,-3.522770345508483957e-03,1.689303980933189869e-02,9.197044466874531796e-03,-9.873705499619587003e-03,1.513638785629468474e-04
-1.760234841048457025e-02,-4.323738158891722409e-03,1.776875244235762846e-02,1.160648082723300840e-02,-9.890942043919484158e-03,2.441795343705112625e-03
-1.812605902468859137e-02,-4.105075125005445795e-03,1.745475126206745900e-02,1.204193003770663399e-02,-1.062884873626116465e-02,3.363301586181088008e-03
-1.498885990422742231e-02,-3.786223460852970821e-03,1.689154848784281751e-02,1.155468342914142341e-02,-1.076163488115146338e-02,1.090486329247646394e-03
-1.119888502778602565e-02,-3.248326251969204347e-03,1.644300393453306669e-02,1.069327619168613727e-02,-1.214325032050705445e-02,-5.458185259568603103e-04
-8.754318147537923367e-03,-4.247656856390440161e-03,1.581092006258507862e-02,7.785760330557296889e-03,-1.201209052537377878e-02,1.417385136159743158e-03
-7.034205306884061537e-03,-5.200358618621921461e-03,1.549272316062958767e-02,3.519116890571750977e-03,-7.924485655309201210e-03,1.147209529613841227e-03
-4.173905163436727149e-03,-4.537383814619070851e-03,1.436945205611686247e-02,8.555367087370341784e-05,-3.604196503093413332e-03,-2.139520245841332758e-03
-1.139500125172374524e-03,-4.354526301358942197e-03,1.175676061731083070e-02,-1.120908849115885998e-03,1.221977709145387174e-04,-5.264023112578195517e-03
1.489568915564242618e-03,-4.382767637262622099e-03,7.299368393449866092e-03,-2.187223856445749681e-03,2.168831399860653240e-03,-4.387777215166394074e-03
2.213908076094286796e-03,-3.441650798834487799e-03,3.131691616638509167e-03,-2.058624888225698505e-03,4.814528105957924936e-03,-4.659852111630510309e-03
3.821928661246659469e-03,-2.343584169918642643e-03,1.091145740376003306e-03,-2.072828371151146792e-03,4.829771667391841508e-03,-5.326433527944697717e-03
4.570093124805085436e-03,-1.596734828364809082e-03,-9.832219657356659672e-04,-1.954457814116473610e-03,5.914779314358002520e-03,-5.950457830946123683e-03
5.541930161396992592e-03,-1.127296646387003888e-03,-3.750124214566421133e-03,-6.897288425894927731e-04,8.624130941890843782e-03,-8.598911399744934084e-03
6.615284557858115526e-03,-8.384115365663095650e-04,-4.282663024604406107e-03,7.897829897195081123e-04,1.091278656781976934e-02,-1.319677955422667200e-02
5.691277353556489435e-03,1.876568491200304600e-05,-4.402635523758070130e-03,3.336542502199513812e-03,8.404455181380514686e-03,-1.304840519829044213e-02
4.326808852413185739e-03,5.788437462918892898e-04,-5.152184054045480521e-03,4.119951250994414657e-03,6.518299088867050839e-03,-1.039171888452101837e-02
2.851353665611447517e-03,1.147067825938863649e-04,-3.746774849174748338e-03,4.659037472502297259e-03,4.182298846393951545e-03,-8.060621917926814872e-03
4.181087156976424153e-04,-9.792101029510623866e-05,-5.065031297872838595e-03,6.131543271410303669e-03,2.513911319795305872e-03,-3.900610998735306364e-03
-2.135294117253071222e-03,9.921280636959441341e-05,-3.673492194051609840e-03,8.100244167357502356e-03,-2.443646308067170137e-03,5.297564564471636772e-05
-3.955829940290510501e-03,6.008269493830381645e-04,-1.534929725547867210e-03,8.088817199684020937e-03,-4.057440335749976264e-03,8.585558525212729723e-04
-4.134854602400889027e-03,6.524777110713062683e-04,-2.631824065235925658e-03,6.478419557033730791e-03,2.814463019795360242e-04,-6.456649024477396958e-04
-2.244923350536196655e-03,4.708336664594115666e-04,-1.855260752868611489e-03,3.143743319198425996e-03,2.199913059470230345e-03,-1.714305941723266594e-03
-1.989280997083284815e-03,4.157984578231029883e-04,-1.879050619463677350e-03,3.211547885596366132e-03,1.020105439792737295e-04,1.389747291482182725e-04
-2.219233913376952774e-03,-4.373161480365784506e-05,-1.392633190022442334e-03,3.425677388428087673e-03,-1.230382927766234414e-03,1.460304257541199030e-03
-2.842734508756339980e-03,-3.256890406020057443e-04,-1.268450123671753570e-03,3.596200337210793928e-03,-2.230162103844814635e-03,3.070835439664126344e-03
-2.068903362385525642e-03,-5.728112893508699531e-05,2.730913762525061933e-04,3.252606984370469585e-03,-6.377101669031699435e-03,4.977587799729338638e-03
-3.041146235905637252e-03,5.673996539822319548e-06,5.369701334586856212e-04,1.671268922193016671e-03,-4.570802578221178081e-03,5.398035761935293317e-03
-7.452005050767542991e-04,-3.346803571335153207e-04,2.059876660960885831e-03,4.848478149876827561e-04,-7.638470617353011229e-03,6.173627003614723212e-03
1.846201182375828149e-04,-7.779281386251132293e-04,8.071043622169233418e-04,-1.207150251463806735e-05,-5.356475069040194867e-03,5.154750229725424057e-03
1.011371783467403859e-03,-1.238395555923336652e-03,1.001205035900571598e-03,-1.134888423302970279e-03,-3.812331110505030440e-03,4.173038270363373624e-03
3.681784480254200569e-03,-2.171526674553760517e-03,-1.514315903161960819e-03,-1.414012627484618871e-04,-1.716323969165211693e-03,1.861783329375192369e-03
3.494667795024556517e-03,-3.895702430528152210e-03,3.716106968159828185e-03,1.015229057778197115e-02,-8.712386429307862612e-03,-4.754976481130353608e-03
-1.741164710626875176e-03,-5.574287725969776300e-03,6.048636884051833938e-03,1.508849670748320902e-02,-1.886575357320487362e-03,-1.193510579761794532e-02
-4.751380741475212319e-03,-5.429228861636991275e-03,-5.100950498154138392e-05,2.116472551439810973e-02,-6.732264654746116222e-04,-1.025987994082970534e-02
-1.260910630773259106e-04,-4.372990579843019296e-03,2.078854680661477473e-03,1.153797996909184005e-02,-8.983093037374845560e-03,-1.346599694580945575e-04
-1.021203022097909264e-03,-3.281235981881176159e-03,3.531039425112009970e-03,3.143744156619297792e-03,-2.070487104486004679e-03,-3.018574732662249226e-04
-2.277234195907243495e-03,-3.483537909446806149e-03,3.014715420427797454e-03,2.076555903709596633e-03,4.235972423666035588e-03,-3.566471642449382199e-03
-4.150678975699781045e-03,-2.224552426221063084e-03,4.068952753555188967e-06,2.033576003502928029e-03,1.151481663750133187e-02,-7.177230191836948825e-03
-7.101891825182122218e-03,-9.533787531353388753e-04,-1.816933092457605550e-03,3.847244289577969774e-03,9.486749532809193516e-03,-3.461790151612093719e-03
-6.486998920471632839e-03,-1.053139837594914245e-03,-6.934083992286573829e-03,6.130029466247645040e-03,1.112645160808035938e-02,-2.782258323974903889e-03
-6.647612344838214199e-03,-9.799529518178724287e-04,-8.028173493365962227e-03,6.374541377034812287e-03,1.024585054953201096e-02,-9.646531365447695182e-04
